tree
version=v4
num_class=1
num_tree_per_iteration=1
label_index=0
max_feature_idx=23
objective=regression
feature_names=High Low Open Volume BTC_High BTC_Low BTC_Open BTC_Volume Close_Lag1 Close_Lag2 Close_Lag3 Return_1D MA5 MA10 MA20 Volatility_5D Volatility_10D RSI MACD MACD_Signal BTC_Return_1D BTC_MA5 BTC_MA10 BTC_Volatility_5D
feature_infos=[9.1800003051757812:57.290000915527344] [8.5299997329711914:51.980998992919922] [8.8400001525878906:54.189998626708984] [2039900:18902800] [54838.14453125:126198.0703125] [49121.23828125:123196.046875] [53949.0859375:124752.140625] [9858198793:181746419401] [8.6899995803833008:55] [8.6899995803833008:55] [8.6899995803833008:55] [-0.24039938589821908:0.25555278540111304] [8.7719999313354489:51.109999847412112] [8.384999847412109:50.326999664306641] [8.311999964714051:48.74349937438965] [1.2167935267522607e-07:4.9196008886644744] [0.13679263637887559:4.4680730187698847] [12.970168622433064:87.765087343107197] [-3.0607495788214152:4.3216837753350674] [-2.4482913440957206:3.7759463531328086] [-0.086820401119416135:0.12144256099404904] [55222.006249999999:123099.53750000001] [56463.148828124999:121285.60781250001] [58.036179038537988:5950.621879385556]
tree_sizes=2047 2193 2188 2010 2107 2295 2201 2111 2196 1858 2211 1935 2195 2104 2024 2024 2030 1941 2044 2130 2037 2112 2221 2115 2307 2038 1955 2120 1958 2119 2225 2139 2028 2223 2127 2125 2137 2125 2049 2217 2046 2131 2058 2043 2152 2053 2138 2139 2036 2133 2138 2049 2051 2047 2039 2052 2140 2051 2039 2045 2211 2232 2221 2120 2140 2226 2140 2139 2039 2046 2045 2150 2043 2149 2138 1964 2128 2220 2221 1960 2053 1952 2059 2143 2159 2041 2060 1937 2047 2057 1963 2235 2231 2126 2046 2142 2235 2136 2413 1954 2051 2142 2042 2049 2316 2145 2045 2226 1954 2149 2232 2042 2228 2160 2135 2144 2050 2156 2130 2140 2223 2136 2050 2222 2155 2141 2050 2138 2165 2069 2240 2043 2156 2073 2225 2225 2325 2134 1969 2142 2252 2063 2049 2069 2137 2252 2151 2138 2230 2146 2154 2246 2144 2153 2162 2233 2160 2054 2163 2142 2240 2074 2161 2150 2249 2167 2247 2170 2343 2262 2058 2070 2141 2148 2156 2252 2060 2267 2175 2161 2158 2076 2059 2156 2229 2159 2069 2058 2162 2165 2162 2168 2152 2069 2071 2247 2076 1978 2245 2146 2054 2145 2146 1971 2074 2249 2248 2159 2160 2156 2344 2151 2235 2074 2152 2246 2247 2066 2346 2171 2062 2163 2241 2159 2173 1967 2079 2159 2154 2244 2054 2155 2072 2156 2239 2256 2159 2157 2259 2261 2062 2170 2166 2254 2341 2251 2266 1965 2264 2067 2242 2164 2078 2160 2240 2084 2068 2157 2255 2160 2160 2250 2073 2246 2260 2162 2070 2163 2145 2162 2250 2074 2068 2078 2154 2157 2156 2162 2073 2259 2176 1974 2256 1985 2064 2168 2248 1968 2263 2057 2156 2251 2070 2158 1963 2258 2244 2165 2066 2078

Tree=0
num_leaves=22
num_cat=0
split_feature=20 13 9 11 23 20 14 3 16 3 3 8 23 21 16 5 15 21 15 9 15
split_gain=0.0246997 0.0371397 0.0268833 0.0204101 0.0185607 0.0163925 0.0192108 0.0230967 0.0131621 0.0120342 0.0215157 0.0152016 0.0127241 0.0193196 0.0154198 0.012296 0.012145 0.012058 0.00351195 0.00322546 0.00254635
threshold=0.021712119478922157 16.306999826431277 11.934999942779543 -1.0000000180025095e-35 1961.8116837970967 -0.018941637612655434 25.117625045776371 5324500.0000000009 0.6057527851517176 6217800.0000000009 3410800.0000000005 15.244999885559084 978.06812708432642 95751.996093750015 0.86978835754343664 107370.41406250001 2.2187231882839433 103869.30937500001 0.73696172339342148 14.545000076293947 0.99860617985064504
decision_type=2 2 2 2 2 2 2 2 2 2 2 2 2 2 2 2 2 2 2 2 2
left_child=2 -2 3 -1 -3 6 7 -4 -5 10 -7 -11 14 19 -12 -15 17 20 -19 -14 -13
right_child=1 4 5 8 -6 9 -8 -9 -10 11 12 16 13 15 -16 -17 -18 18 -20 -21 -22
leaf_value=0.0058585300928575531 0.0036353011990755899 0.0067519709114741075 0.0027120407679081119 0.0047562517717339202 0.0047432565991915136 0.0030101320994007736 0.0018512324750085906 0.0048914275632600847 0.0032790462936868503 0.0047369532583875201 0.0042309943673339958 0.0027616531002159694 0.0027875043224671468 0.0056580865284090471 0.0061108080384915317 0.004133224650350294 0.0043484584538859864 0.0031419275349923795 0.0040362558287319562 0.0036648369259202128 0.0020001317844122531
leaf_weight=25 38 23 31 38 23 36 24 20 25 20 24 23 20 20 20 39 20 23 21 22 21
leaf_count=25 38 23 31 38 23 36 24 20 25 20 24 23 20 20 20 39 20 23 21 22 21
internal_value=0.00400207 0.00479204 0.00386149 0.00464974 0.00574761 0.00368085 0.00301775 0.0035667 0.00417006 0.00384179 0.00410419 0.00347074 0.00437582 0.00406667 0.00508546 0.00465013 0.00323626 0.00298348 0.00356877 0.00324706 0.0023982
internal_weight=556 84 472 88 46 384 75 51 63 309 181 128 145 101 44 59 108 88 44 42 44
internal_count=556 84 472 88 46 384 75 51 63 309 181 128 145 101 44 59 108 88 44 42 44
is_linear=0
shrinkage=1


Tree=1
num_leaves=23
num_cat=0
split_feature=20 13 9 11 23 20 14 3 5 11 19 3 10 0 15 3 13 18 21 17 14 23
split_gain=0.0222915 0.0335186 0.0242622 0.0184201 0.016751 0.0147942 0.0173378 0.0208448 0.011958 0.0114827 0.0138238 0.0214964 0.013914 0.0111514 0.00893919 0.00864315 0.00782404 0.00757787 0.00685639 0.00592505 0.00502411 0.00490423
threshold=0.021712119478922157 16.306999826431277 11.934999942779543 -1.0000000180025095e-35 1961.8116837970967 -0.018941637612655434 25.117625045776371 5324500.0000000009 68065.179687500015 0.0093456327923242561 0.22990072019577543 6381500.0000000009 23.590000152587894 20.542499542236332 1.5201903526620737 6869850.0000000009 19.510999870300299 2.2648620126129342 96800.016406250026 37.079269939923101 17.600000000000005 1071.8477758964214
decision_type=2 2 2 2 2 2 2 2 2 2 2 2 2 2 2 2 2 2 2 2 2 2
left_child=2 -2 3 -1 -3 6 7 -4 21 10 18 12 13 -12 15 20 -13 -18 19 -7 -11 -5
right_child=1 4 5 8 -6 9 -8 -9 -10 14 11 16 -14 -15 -16 -17 17 -19 -20 -21 -22 -23
leaf_value=0.001763632616493851 -0.00034843487052344966 0.0026124013961120714 -0.0012255322773970904 0.0011978516283090272 0.00070412277406000582 -0.00014425838628085331 -0.0020433001011648838 0.00084488522876199575 -0.00078080833220817364 -0.0011154784332029521 0.0010703411900127929 0.00027718512060613754 0.001946619847275661 -0.0004538690320623573 0.00022637520398182624 -0.0017734173818358353 -0.0014426618913421408 -6.6265198984183368e-05 0.00021042993403566277 -0.0012349000440515354 -3.1913655212796905e-05 0.00010383822780568152
leaf_weight=25 38 23 31 21 23 20 24 20 22 20 30 34 23 20 22 21 20 20 23 33 23 20
leaf_count=25 38 23 31 21 23 20 24 20 22 20 30 34 23 20 22 21 20 20 23 33 23 20
internal_value=5.60353e-12 0.000750471 -0.000133558 0.00061528 0.00165826 -0.000305167 -0.000935107 -0.000413604 0.000159585 -0.000152269 3.70129e-05 0.000320074 0.000928837 0.000460657 -0.000643082 -0.000941959 -0.000280463 -0.000754464 -0.000510487 -0.000823337 -0.000535897 0.000664187
internal_weight=556 84 472 88 46 384 75 51 63 309 223 147 73 50 86 64 74 40 76 53 43 41
internal_count=556 84 472 88 46 384 75 51 63 309 223 147 73 50 86 64 74 40 76 53 43 41
is_linear=0
shrinkage=0.05


Tree=2
num_leaves=23
num_cat=0
split_feature=20 20 19 9 11 20 3 7 16 3 3 8 23 21 16 5 15 21 9 15 9 19
split_gain=0.0201181 0.0307011 0.0287125 0.0218966 0.0166242 0.0133518 0.016973 0.0165261 0.0115751 0.0107123 0.0178651 0.0138018 0.0113301 0.0172047 0.0147451 0.0110673 0.0108415 0.0118152 0.00389926 0.00338476 0.0022762 0.00225593
threshold=0.021712119478922157 0.029044604604070993 0.32446596896245133 11.934999942779543 -1.0000000180025095e-35 -0.018941637612655434 7361600.0000000009 49351069548.000008 0.6057527851517176 3350650.0000000005 6217800.0000000009 15.244999885559084 978.06812708432642 95751.996093750015 0.86978835754343664 107370.41406250001 2.1853171063919228 103869.30937500001 13.995000362396242 0.73696172339342148 23.345000267028812 1.4484374098927917
decision_type=2 2 2 2 2 2 2 2 2 2 2 2 2 2 2 2 2 2 2 2 2 2
left_child=3 -2 -3 4 -1 6 7 -5 -6 -7 12 -12 14 18 -11 -15 17 21 -14 -19 -17 -13
right_child=1 2 -4 5 8 9 -8 -9 -10 10 11 16 13 15 -16 20 -18 19 -20 -21 -22 -23
leaf_value=0.0016754509678285102 0.0019012727661792076 -0.0011744913817555817 0.0012023675141487427 -0.002397419909855513 0.000701324014287246 -0.0010262617923980277 0.0002081214132886089 -0.00058859308358348377 -0.00068396558030508461 0.00020499468265808429 0.00072625800385139883 -0.001927181926190055 -0.001243557079724269 0.0015377823036396877 0.0019962029031012208 0.0004744317813310773 0.00025937297690214344 -0.00079533255471766974 -0.00028896852517905439 9.4051736523397282e-05 -0.00027992298128083349 -0.0011942931805692968
leaf_weight=25 33 27 24 23 38 31 24 28 25 27 20 21 20 20 20 20 23 23 23 20 20 21
leaf_count=25 33 27 24 23 38 31 24 28 25 27 20 21 20 20 20 20 23 23 23 20 20 21
internal_value=3.24539e-12 0.000712947 -5.59695e-05 -0.00012688 0.000584516 -0.000289909 -0.000888351 -0.00140434 0.000151606 -0.000144656 -4.63472e-05 -0.000480249 0.000323915 3.03729e-05 0.000967211 0.00057743 -0.000703676 -0.000964266 -0.000732963 -0.000381665 9.72544e-05 -0.00156074
internal_weight=556 84 51 472 88 384 75 51 63 309 278 128 150 103 47 60 108 85 43 43 40 42
internal_count=556 84 51 472 88 384 75 51 63 309 278 128 150 103 47 60 108 85 43 43 40 42
is_linear=0
shrinkage=0.05


Tree=3
num_leaves=21
num_cat=0
split_feature=20 13 9 11 23 11 17 2 22 10 0 3 7 20 5 8 23 14 17 23
split_gain=0.0181566 0.0283516 0.0197617 0.0150033 0.0146351 0.0123896 0.0151454 0.0143921 0.0313822 0.0158016 0.0147705 0.0125377 0.011781 0.011031 0.0105448 0.00939998 0.00715589 0.00466753 0.00453033 0.00438822
threshold=0.021712119478922157 16.306999826431277 11.934999942779543 -1.0000000180025095e-35 1961.8116837970967 0.042296474610136421 48.364561336074992 26.12400054931641 110756.89101562502 23.229999542236332 20.479999542236332 4828800.0000000009 44631428869.000008 -0.0083796098070789676 68065.179687500015 15.287500381469728 1340.0658262926538 15.875749802589418 62.689069748390075 1071.8477758964214
decision_type=2 2 2 2 2 2 2 2 2 2 2 2 2 2 2 2 2 2 2 2
left_child=2 -2 3 -1 -3 6 12 9 -9 10 11 -8 16 -14 19 -13 -4 -17 -7 -5
right_child=1 4 5 14 -6 18 7 8 -10 -11 -12 15 13 -15 -16 17 -18 -19 -20 -21
leaf_value=0.0015916784326545895 -0.00033336299759531888 0.0024040395798257796 -0.00053548457103715921 0.0011226827029271848 0.00062035041476559381 -0.00045208447525510567 -0.00043533013097476212 -0.0016749864377010046 0.0004816865739682013 0.0016862958687124776 -0.0007324272410407888 0.0017832321760215563 -0.00070052332726845646 0.00063095886975393775 -0.0007390535161407156 -6.0874676204375223e-05 -0.0015848497600844979 0.00099331490235358847 -0.0014373686076006769 8.7822686764411629e-05
leaf_weight=25 38 23 32 21 23 20 25 31 37 20 33 20 35 28 22 21 33 21 28 20
leaf_count=25 38 23 32 21 23 20 25 31 37 20 33 20 35 28 22 21 33 21 28 20
internal_value=5.93789e-14 0.0006773 -0.000120536 0.000555291 0.00151219 -0.000275413 -0.000168068 9.52706e-05 -0.000501503 0.000385132 0.000168271 0.000509915 -0.000595992 -0.000108753 0.000144026 0.000891063 -0.00106824 0.00046622 -0.00102683 0.000617873
internal_weight=556 84 472 88 46 384 336 208 68 140 120 87 128 63 63 62 65 42 48 41
internal_count=556 84 472 88 46 384 336 208 68 140 120 87 128 63 63 62 65 42 48 41
is_linear=0
shrinkage=0.05


Tree=4
num_leaves=22
num_cat=0
split_feature=20 19 2 11 20 7 9 7 17 17 6 17 19 5 5 2 16 19 19 3 16
split_gain=0.0163966 0.0217115 0.0187022 0.0183167 0.0181044 0.0167768 0.0163553 0.012313 0.00922055 0.0145109 0.00954393 0.00890904 0.00883232 0.00871586 0.00810711 0.00681453 0.00838354 0.00651948 0.0128337 0.00491244 0.0113344
threshold=0.013163079946147517 -0.47059609253782081 12.875000000000002 1.0000000180025095e-35 -0.018941637612655434 55820164456.000008 28.755000114440922 37114546910.000008 60.791715002970385 53.680892607498016 112042.62109375001 64.62890466886374 0.19680106663083555 91980.871093750015 106418.72265625001 16.417499542236332 1.5214154289098818 -0.47059609253782081 -0.84869957989572242 6101550.0000000009 0.6808700336652953
decision_type=2 2 2 2 2 2 2 2 2 2 2 2 2 2 2 2 2 2 2 2 2
left_child=2 -2 7 -3 5 -4 -7 12 9 13 15 -5 17 -6 -11 -10 -17 18 -1 20 -15
right_child=1 3 4 11 8 6 -8 -9 10 14 -12 -13 -14 19 -16 16 -18 -19 -20 -21 -22
leaf_value=0.00093828701246820865 -0.00060022916618022873 0.0018169274940566327 -0.0022198052679992873 0.0010063826276953999 -0.0011999994798679837 0.00042538156439232727 -0.0015502103736798746 0.0014827041105101152 -0.00016784589246088689 0.0014440175847994397 0.00027418819622003607 -0.00022403217829583636 -0.00048887759047959532 -0.00044635988392487721 0.00019168379232204253 -0.0018816451944241473 -0.00056675817155606915 0.001247505546452885 -0.00077666512603173036 -0.00067873759886424531 0.0010640956649971803
leaf_weight=24 33 34 22 28 20 22 20 21 27 24 28 31 35 27 28 22 27 20 20 20 23
leaf_count=24 33 34 22 28 20 22 20 21 27 24 28 31 35 27 28 22 27 20 20 20 23
internal_value=4.1975e-12 0.000501601 -0.000146981 0.000892573 -0.00035214 -0.00110127 -0.000515377 0.000383015 -0.000157244 0.000104728 -0.000514935 0.000359893 0.000149747 -0.00027947 0.000769684 -0.000805665 -0.00115712 0.000498995 0.000158763 -1.6461e-05 0.00024845
internal_weight=556 126 430 93 310 64 42 120 246 142 104 59 99 90 52 76 49 64 44 70 50
internal_count=556 126 430 93 310 64 42 120 246 142 104 59 99 90 52 76 49 64 44 70 50
is_linear=0
shrinkage=0.05


Tree=5
num_leaves=24
num_cat=0
split_feature=20 20 19 9 11 11 18 2 16 3 14 10 9 5 7 20 7 23 20 23 23 17 8
split_gain=0.0151475 0.0260386 0.0246791 0.016714 0.0131251 0.0110821 0.0144499 0.012748 0.017702 0.0196594 0.0171249 0.0165089 0.0132779 0.00960473 0.00935267 0.0115753 0.0104609 0.00914444 0.00943346 0.00615506 0.00399163 0.00391553 0.00103304
threshold=0.021712119478922157 0.028261464114628602 0.32446596896245133 11.934999942779543 -1.0000000180025095e-35 0.025519254631887204 0.17954813873174838 15.820000171661379 2.8416964551298509 6217800.0000000009 12.627999925613404 23.345000267028812 25.914999961853031 68065.179687500015 47147819584.000008 -0.0083796098070789676 26659575528.500004 1299.1219030403722 0.0081461861819310828 1381.7247488477876 1071.8477758964214 63.452992104064776 20.884999275207523
decision_type=2 2 2 2 2 2 2 2 2 2 2 2 2 2 2 2 2 2 2 2 2 2 2
left_child=3 -2 -3 4 -1 6 14 10 9 11 -8 22 21 20 16 -16 -5 -7 -19 -18 -6 -11 -9
right_child=1 2 -4 5 13 17 7 8 -10 12 -12 -13 -14 -15 15 -17 19 18 -20 -21 -22 -23 -24
leaf_value=0.0014807858405401931 0.0017997048993129282 -0.0011064160311232425 0.0010313889891323117 -9.3886216769612448e-05 0.0010604646278633959 -2.0535073734050538e-05 -5.635905079543591e-06 -2.2582240053452551e-05 0.0012646480358117038 0.00017425224941689522 0.0019572968425927684 0.0013820810408409065 -0.0016624725315220229 -0.00071602254015901558 -0.00072776681179395663 0.00087220903602428738 -0.00079083212871669929 -0.0020200087367335247 -0.00056891164410141453 -0.0019747974135359827 7.3475518147461118e-05 -0.00078025354804205039 -0.00053077548407600263
leaf_weight=25 30 27 27 23 21 23 25 20 21 22 20 24 30 22 26 20 21 21 24 23 20 21 20
leaf_count=25 30 27 27 23 21 23 25 20 21 22 20 24 30 22 26 20 21 21 24 23 20 21 20
internal_value=-3.92285e-12 0.000618636 -3.75135e-05 -0.000110096 0.000511437 -0.000252531 -0.000127929 0.000124332 -8.71237e-05 -0.00029433 0.000866779 0.000345356 -0.00085515 0.000126774 -0.000581106 -3.21251e-05 -0.000958018 -0.000831564 -0.00124609 -0.00140972 0.000579007 -0.000291902 -0.000276679
internal_weight=556 84 54 472 88 384 316 203 158 137 45 64 73 63 113 46 67 68 45 44 41 43 40
internal_count=556 84 54 472 88 384 316 203 158 137 45 64 73 63 113 46 67 68 45 44 41 43 40
is_linear=0
shrinkage=0.05


Tree=6
num_leaves=23
num_cat=0
split_feature=20 20 19 9 2 7 20 14 9 11 6 23 23 19 18 5 4 4 19 15 9 14
split_gain=0.0136707 0.0234998 0.0222729 0.0150844 0.0128714 0.0101628 0.018777 0.0233789 0.0166169 0.0091483 0.0104817 0.00916945 0.0101471 0.0100316 0.00822285 0.00695931 0.00523477 0.00727869 0.00509668 0.00643229 0.00430455 0.00408781
threshold=0.021712119478922157 0.028261464114628602 0.32446596896245133 11.934999942779543 11.835000038146974 75532214684.000015 -0.01633617345992194 17.487500143051154 25.925000190734867 0.0093456327923242561 103514.05859375001 1007.3134885482988 1423.3977352476884 1.0000000180025095e-35 -0.48836643616894987 66994.140625000015 116303.97265625001 110551.44140625001 0.41340989718416749 1.2169636024867516 18.257500648498539 10.749249935150148
decision_type=2 2 2 2 2 2 2 2 2 2 2 2 2 2 2 2 2 2 2 2 2 2
left_child=3 -2 -3 4 15 6 7 -5 -7 10 11 13 -13 -8 -14 21 17 20 -11 -20 -12 -1
right_child=1 2 -4 5 -6 8 9 -9 -10 18 16 12 14 -15 -16 -17 -18 -19 19 -21 -22 -23
leaf_value=0.00097143895012171333 0.0017097196999626856 -0.0010510951958066371 0.00097981951872093821 -0.00013660797724393585 0.0016008802378200924 0.0015414038150447595 -0.00043356720517571696 -0.0020945751070793185 -0.0003319875493240222 -1.2509274782369965e-05 0.00082558261288795626 -0.0015386719956454315 0.00047146799884310235 0.0010975594632327557 -0.00083075700466805663 -0.00052696846557106862 -0.00018960600111010234 0.0014640791481360794 -0.0013640870987963413 -0.00023073711934211178 -0.00019936324984190011 3.5599805414676666e-06
leaf_weight=24 30 27 27 30 20 20 23 31 29 23 20 22 22 20 27 24 24 20 31 21 21 20
leaf_count=24 30 27 27 30 20 20 23 31 29 23 20 22 22 20 27 24 24 20 31 21 21 20
internal_value=-7.27923e-15 0.000587704 -3.56378e-05 -0.000104591 0.000485865 -0.000239904 -0.00033828 -0.00113164 0.000432662 -0.000161656 1.57099e-05 -0.00029763 -0.000646605 0.000278585 -0.000246085 0.000157919 0.000435954 0.000682076 -0.000632265 -0.000906388 0.00030061 0.000531494
internal_weight=556 84 54 472 88 384 335 61 49 274 199 114 71 43 49 68 85 61 75 52 41 44
internal_count=556 84 54 472 88 384 335 61 49 274 199 114 71 43 49 68 85 61 75 52 41 44
is_linear=0
shrinkage=0.05


Tree=7
num_leaves=22
num_cat=0
split_feature=1 20 19 11 2 1 2 3 10 16 0 7 7 2 19 14 19 19 20 16 6
split_gain=0.012731 0.0132334 0.0198631 0.0179896 0.0123996 0.0173047 0.0137156 0.0123973 0.0157166 0.0135331 0.0185621 0.0109052 0.0100166 0.00812663 0.00811664 0.0076833 0.00564398 0.011035 0.0054139 0.00511485 0.00397668
threshold=43.142499923706062 0.013163079946147517 -0.47059609253782081 1.0000000180025095e-35 12.875000000000002 13.47499990463257 15.820000171661379 6217800.0000000009 23.345000267028812 1.4322729639400202 18.854999542236332 37114546910.000008 72915502305.500015 26.343999862670902 0.19680106663083555 22.126625037193303 -0.47059609253782081 -0.84869957989572242 -0.0083796098070789676 0.67189217111686872 103277.10156250001
decision_type=2 2 2 2 2 2 2 2 2 2 2 2 2 2 2 2 2 2 2 2 2
left_child=1 4 -3 -4 11 -6 -7 8 18 10 -9 14 20 -10 16 -5 17 -1 -8 -20 -11
right_child=-2 2 3 15 5 6 7 9 13 12 -12 -13 -14 -15 -16 -17 -18 -19 19 -21 -22
leaf_value=0.00086095572860358518 -0.0012076221356567528 -0.00054679256575058607 0.0018389644041235443 -7.1354221703635683e-05 -0.0015806684736478773 0.00078687118135242025 -0.00097177510402085923 -0.00038119493906560822 0.0015809285497653037 -0.0010836447959224208 -0.0023725621568949219 0.0013743284790377532 0.00069852162490687561 0.00017263713414736448 -0.0004923181678168476 0.0011260678282096273 0.0011511264072032645 -0.00072927845700178308 -0.000495209022304266 0.00045929722697474066 -0.00014335641039493071
leaf_weight=24 21 33 32 37 23 34 24 25 20 23 22 21 21 21 35 21 20 20 32 25 22
leaf_count=24 21 33 32 37 23 34 24 25 20 23 22 21 21 21 35 21 20 20 32 25 22
internal_value=-7.75557e-12 4.7402e-05 0.000502521 0.000887269 -8.84708e-05 -0.000264314 -0.000151763 -0.000287565 6.19434e-05 -0.000664911 -0.00131332 0.000339414 -0.000203162 0.000859609 0.000119886 0.000362195 0.000454686 0.000138122 -0.000341813 -7.65659e-05 -0.000623948
internal_weight=556 535 123 90 412 292 269 235 122 113 47 120 66 41 99 58 64 44 81 57 45
internal_count=556 535 123 90 412 292 269 235 122 113 47 120 66 41 99 58 64 44 81 57 45
is_linear=0
shrinkage=0.05


Tree=8
num_leaves=23
num_cat=0
split_feature=20 1 7 6 11 20 3 3 5 1 17 11 5 19 23 18 19 11 23 16 10 18
split_gain=0.0122722 0.023195 0.0169548 0.0135222 0.01185 0.0361033 0.00859314 0.0168658 0.010854 0.011337 0.00848571 0.0123772 0.0134225 0.010175 0.00965904 0.00770738 0.0217772 0.00766863 0.00544028 0.00500628 0.00318465 0.00287478
threshold=-0.018941637612655434 12.00500011444092 49351069548.000008 105840.75000000001 0.0093456327923242561 0.024795948280258776 3410800.0000000005 5426250.0000000009 101362.31640625001 14.950000286102297 62.479048343484727 0.087018598282523577 108095.49218750001 -0.45260569787970945 1299.1219030403722 -0.25999090272700082 -0.75372493140460217 -0.0068560913882261812 1136.0518774197574 0.55201117875136352 34.827501296997077 1.3545811028559325
decision_type=2 2 2 2 2 2 2 2 2 2 2 2 2 2 2 2 2 2 2 2 2 2
left_child=1 -1 -3 -4 5 6 19 15 9 -9 13 12 -12 -6 -15 16 -8 -17 -19 -2 -10 -11
right_child=4 2 3 -5 10 -7 7 8 20 21 11 -13 -14 14 -16 17 -18 18 -20 -21 -22 -23
leaf_value=0.00080275501431970042 -0.00090319011711211981 -0.0021463313669135625 0.00043358726199420002 -0.001300317994521364 -0.00063412293367887725 0.0022866246634207312 0.0012825591540288018 0.00027364086243323986 9.7570976746889454e-05 -0.00067675694930254731 -0.0017665094041650923 0.00041714227583725008 -0.00016797923708509189 0.0013751446674723413 -2.2842349218470711e-06 0.0017456208833027632 -0.00091784135818835991 0.0012247356920852327 7.248268202168956e-05 0.00013255753583507612 0.00087360273493686702 -0.0015050249963678654
leaf_weight=24 28 22 22 23 31 21 23 25 39 22 29 20 24 20 35 25 22 20 21 20 20 20
leaf_count=24 28 22 22 23 31 21 23 25 39 22 29 20 24 20 35 25 22 20 21 20 20 20
internal_value=2.28388e-12 -0.000531006 -0.00100877 -0.000452631 0.000103917 0.000285862 0.000138438 0.000261995 -0.000133895 -0.000569375 -0.000246241 -0.000642705 -0.00104265 9.02923e-05 0.000498599 0.000711385 0.000206808 0.00105541 0.000634557 -0.000471629 0.000360633 -0.00107117
internal_weight=556 91 67 45 465 306 285 237 126 67 159 73 53 86 55 111 45 66 41 48 59 42
internal_count=556 91 67 45 465 306 285 237 126 67 159 73 53 86 55 111 45 66 41 48 59 42
is_linear=0
shrinkage=0.05


Tree=9
num_leaves=19
num_cat=0
split_feature=1 20 19 11 21 23 3 9 16 18 17 10 0 17 3 20 11 15
split_gain=0.011258 0.0110248 0.0172789 0.0151209 0.0105445 0.00915971 0.00798103 0.0158245 0.0140959 0.0116316 0.0108205 0.00793774 0.00850845 0.00705114 0.00672391 0.00669467 0.0103112 0.00708034
threshold=43.142499923706062 0.013163079946147517 -0.47059609253782081 1.0000000180025095e-35 60005.435156250009 3042.4246742600062 6217800.0000000009 16.625000000000004 1.4524128812033161 -0.31309092368449937 37.079269939923101 23.345000267028812 20.479999542236332 68.433222940815611 7447300.0000000009 -0.014019683254240188 -0.0052188037857801564 0.50251342518780573
decision_type=2 2 2 2 2 2 2 2 2 2 2 2 2 2 2 2 2 2
left_child=1 4 -3 -4 -1 6 9 -8 -9 10 -6 12 15 -5 -10 -11 -17 -18
right_child=-2 2 3 13 5 -7 7 8 14 11 -12 -13 -14 -15 -16 16 17 -19
leaf_value=0.00082318060866479453 -0.0011356126963316152 -0.00051869379698693974 0.0016913539520828635 0.00078434586924101639 0.00011847158282762393 0.00059730335464386417 0.00031725944552615857 -0.0016656976563673518 -0.0010264515837271964 -0.00054972095586847331 -0.0011445897103000719 0.00088629469055376839 -0.00073011964860294641 -0.00034263312776127591 0.00017645931881046497 0.0014306769119139062 0.00058512438772595488 -0.00058772635953077549
leaf_weight=30 21 33 32 35 30 37 36 37 21 21 39 32 30 23 26 20 31 22
leaf_count=30 21 33 32 35 30 37 36 37 21 21 39 32 30 23 26 20 31 22
internal_value=-1.94985e-13 4.45755e-05 0.000459984 0.000818832 -7.9442e-05 -0.000150329 -0.000230509 -0.000559808 -0.000935695 -5.48833e-05 -0.000595433 0.000184206 3.02165e-06 0.00033744 -0.000361012 0.000237003 0.000463321 9.82807e-05
internal_weight=556 535 123 90 412 382 345 120 84 225 69 156 124 58 47 94 73 53
internal_count=556 535 123 90 412 382 345 120 84 225 69 156 124 58 47 94 73 53
is_linear=0
shrinkage=0.05


Tree=10
num_leaves=23
num_cat=0
split_feature=20 1 7 9 11 20 3 3 5 20 20 10 14 3 11 11 18 19 11 23 16 17
split_gain=0.0106352 0.0203164 0.0150907 0.012604 0.0102049 0.0308878 0.0078575 0.0146528 0.0101022 0.0101379 0.0110582 0.00759124 0.0122775 0.0121356 0.00668849 0.0118644 0.00629936 0.0193106 0.00661785 0.00495361 0.0043643 0.00306584
threshold=-0.018941637612655434 12.00500011444092 49351069548.000008 25.914999961853031 0.0093456327923242561 0.024795948280258776 3410800.0000000005 5426250.0000000009 101362.31640625001 -0.0076053821732292573 0.0064201706090948338 11.214999675750734 21.902375125885012 6731550.0000000009 0.073559773523186114 0.037760723193395969 -0.25999090272700082 -0.75372493140460217 -0.0068560913882261812 1136.0518774197574 0.55201117875136352 65.183801333154449
decision_type=2 2 2 2 2 2 2 2 2 2 2 2 2 2 2 2 2 2 2 2 2 2
left_child=1 -1 -3 -4 5 6 20 16 9 -9 -11 -6 14 -14 15 -13 17 -8 -18 -20 -2 -10
right_child=4 2 3 -5 11 -7 7 8 21 10 -12 12 13 -15 -16 -17 18 -19 19 -21 -22 -23
leaf_value=0.00075393407233643008 -0.00085708924172130151 -0.0020146654696542431 0.00051878126279916617 -0.0011652345760376193 0.0006339311896061356 0.002116195310927218 0.001223077845213044 -0.0014846039560507053 0.00061356962090567096 0.00051952962223569767 -0.0010316554956625622 -0.00037815759105797042 0.0010345598719432019 -0.00050831033124548134 -7.9333057402874589e-05 -0.0018013437821840245 0.001618442623119336 -0.00084896791747517207 0.0011494652017427142 4.9957812907883812e-05 0.00010997200122801587 -0.00014784926868742333
leaf_weight=24 28 22 20 25 22 21 23 20 39 27 20 32 25 26 27 27 25 22 20 21 20 20
leaf_count=24 28 22 20 25 22 21 23 20 39 27 20 32 25 26 27 27 25 22 20 21 20 20
internal_value=-2.93811e-12 -0.000494324 -0.000941461 -0.000416783 9.67386e-05 0.000265583 0.000129222 0.000247373 -0.000121632 -0.00054176 -0.000140549 -0.000228207 -0.000366652 0.000247999 -0.000731155 -0.00102945 0.000666243 0.000210078 0.000977265 0.000586303 -0.000454147 0.000355462
internal_weight=556 91 67 45 465 306 285 237 126 67 47 159 137 51 86 59 111 45 66 41 48 59
internal_count=556 91 67 45 465 306 285 237 126 67 47 159 137 51 86 59 111 45 66 41 48 59
is_linear=0
shrinkage=0.05


Tree=11
num_leaves=20
num_cat=0
split_feature=9 7 17 20 14 7 3 17 23 11 20 11 19 15 22 18 17 19 9
split_gain=0.0102448 0.0100677 0.018928 0.00958026 0.0224562 0.0181098 0.0133291 0.0145471 0.0117697 0.00976604 0.0104851 0.0097666 0.00829905 0.00739319 0.00613528 0.00607463 0.00495149 0.0123017 0.00486451
threshold=47.084999084472663 81718775365.000015 58.451222000395752 -0.0073048097017441296 17.525500035285955 40388226623.500008 3875250.0000000005 67.195377716722291 1238.4565656526606 0.054299053615725741 0.012879112516639092 -0.0068560913882261812 0.091373219729430341 0.85434427874520757 110394.19140625001 1.2266664415503092 51.213034677285627 0.46165028250699697 16.929999351501468
decision_type=2 2 2 2 2 2 2 2 2 2 2 2 2 2 2 2 2 2 2
left_child=1 3 -3 4 5 8 12 9 -1 10 11 -8 -5 -6 15 -9 -13 -18 -12
right_child=-2 2 -4 6 13 -7 7 14 -10 -11 18 16 -14 -15 -16 -17 17 -19 -20
leaf_value=0.00026175187629312 -0.0010833067162561098 -0.00021661558561250928 0.0017306050797439338 -0.00097873655882162549 -0.001743234916536424 0.0011432912228823019 0.0012259773532699409 -7.8660259040428656e-05 -0.0011365352456104356 -0.00025446064137213398 0.00083931364445431571 -0.00031359246896692748 0.00013814575203437485 -0.00062318981397445046 0.00040674011979717766 -0.0010832151041271303 0.0013715660339498538 -0.00030223961031246608 0.0019155179915417517
leaf_weight=34 21 26 24 39 26 30 29 34 27 32 21 33 29 34 25 27 21 23 21
leaf_count=34 21 26 24 39 26 30 29 34 27 32 21 33 29 34 25 27 21 23 21
internal_value=2.98236e-12 4.25223e-05 0.00071805 -2.71197e-05 -0.000357621 0.000137493 0.000122298 0.000282001 -0.000357162 0.000537583 0.000708835 0.000443926 -0.000502419 -0.00110854 -0.000252939 -0.000523299 0.000149387 0.000496622 0.00137742
internal_weight=556 535 50 485 151 91 334 266 61 180 148 106 68 60 86 61 77 44 42
internal_count=556 535 50 485 151 91 334 266 61 180 148 106 68 60 86 61 77 44 42
is_linear=0
shrinkage=0.05


Tree=12
num_leaves=23
num_cat=0
split_feature=1 7 4 11 23 9 15 11 19 19 17 21 8 10 19 16 16 3 9 23 13 7
split_gain=0.00929115 0.00892199 0.0139262 0.03728 0.011248 0.0100183 0.0140609 0.0154762 0.011851 0.00978035 0.0113782 0.012781 0.0123471 0.0090484 0.00898106 0.00852359 0.00847682 0.00627984 0.00461459 0.00409626 0.00310712 0.00284798
threshold=43.142499923706062 41070156060.500008 89058.804687500015 0.003467518893147004 2159.7899142297088 11.934999942779543 0.90195609213889816 -0.0016455623872611567 0.70110452525645905 -0.59412708051319485 62.479048343484727 97354.607031250009 19.800000190734867 11.307499885559084 1.3241114356884391 2.1102421892625203 0.6057527851517176 5944600.0000000009 13.065000057220461 1826.1957210458352 17.634749984741216 56313065760.500008
decision_type=2 2 2 2 2 2 2 2 2 2 2 2 2 2 2 2 2 2 2 2 2 2
left_child=1 4 3 -3 5 13 7 -7 18 -4 11 -11 -13 16 19 17 -1 -12 -9 -14 -8 -19
right_child=-2 2 9 -5 -6 6 20 8 -10 10 15 12 14 -15 -16 -17 -18 21 -20 -21 -22 -23
leaf_value=0.00061171925217422545 -0.0010316554670377323 0.0025705240407530388 -0.00084981305117253218 -0.00037472121025943622 -0.0010195503054145614 -0.0014917818837354637 0.00093787732015698571 -5.8036165335744788e-05 0.00081547024227412697 0.001661201339447871 0.00011217493896159188 0.0010801451658180945 -0.00086501713764543329 0.0013055001693179035 0.000807611706550233 0.00060842648143245078 -0.00064671009060238366 -0.00049951067880361476 -0.001025714824260961 3.2745560505039367e-05 7.6790183877826419e-05 -0.0013332029146840797
leaf_weight=32 21 21 25 22 34 33 20 22 21 20 24 33 27 21 20 22 23 21 28 24 22 20
leaf_count=32 21 21 25 22 34 33 20 22 21 20 24 33 27 21 20 22 23 21 28 24 22 20
internal_value=-4.20461e-12 4.04949e-05 0.000236083 0.00106365 -0.000172665 -4.29623e-05 -0.0002853 -0.000597122 -0.000181295 8.52964e-05 0.000196091 0.000503641 0.000281033 0.000422581 -9.0385e-05 -0.000242255 8.5467e-05 -0.000530178 -0.000599936 -0.000442541 0.000486832 -0.00090619
internal_weight=556 535 279 43 256 222 146 104 71 236 211 124 104 76 71 87 55 65 50 51 42 41
internal_count=556 535 279 43 256 222 146 104 71 236 211 124 104 76 71 87 55 65 50 51 42 41
is_linear=0
shrinkage=0.05


Tree=13
num_leaves=22
num_cat=0
split_feature=20 1 7 6 19 22 22 3 18 19 3 18 7 19 22 20 8 14 18 0 16
split_gain=0.00939333 0.0172805 0.0136585 0.0116849 0.00969344 0.00833717 0.0085334 0.0105835 0.0167239 0.0106741 0.00977777 0.0113102 0.0122582 0.0168071 0.009336 0.00762581 0.00622621 0.00527061 0.00506585 0.00424316 0.00170626
threshold=-0.018941637612655434 12.00500011444092 49351069548.000008 105840.75000000001 2.3473526937631459 59014.43378906251 60628.10761718751 6217800.0000000009 0.89525977871659201 0.37974046550261825 4044600.0000000005 0.3763366966438309 28260165075.000004 -0.47059609253782081 110557.24296875001 0.0030059141844258623 27.364999771118168 17.557000041007999 1.1720756369302781 17.619999885559086 0.55201117875136352
decision_type=2 2 2 2 2 2 2 2 2 2 2 2 2 2 2 2 2 2 2 2 2
left_child=1 -1 -3 -4 5 -2 -7 8 10 17 15 12 -12 -14 -10 20 18 -9 19 -11 -8
right_child=4 2 3 -5 -6 6 7 9 14 16 11 -13 13 -15 -16 -17 -18 -19 -20 -21 -22
leaf_value=0.00068665522606655338 0.0010205124848289416 -0.0018979523632548412 0.00044602716225199406 -0.0011657800779769035 0.00086734748077327132 -0.0009828839133578268 -0.00031828990719408139 0.00087903511640351195 0.0017951856714005219 -0.00047478488360700962 -0.00022022800581155403 -0.00042879176027191854 -8.1681118657191609e-05 0.0016982070991717693 0.00038547546094681216 -0.0010226242569079925 -0.0013478413626382298 -0.00022838815937228945 -0.001029062479342842 0.00044817032348873912 0.00029762924051560141
leaf_weight=24 20 22 22 23 37 22 22 22 23 33 29 37 21 36 24 31 22 21 22 20 23
leaf_count=24 20 22 22 23 37 22 22 22 23 33 29 37 21 36 24 31 22 21 22 20 23
internal_value=8.93464e-13 -0.000464567 -0.000876945 -0.000377785 9.09152e-05 2.37937e-05 -2.5065e-05 2.95257e-05 0.000227035 -0.000317527 2.66834e-05 0.000302181 0.000616669 0.00104246 0.00107533 -0.000419188 -0.00060821 0.0003382 -0.000391252 -0.0001265 -3.48679e-06
internal_weight=556 91 67 45 465 428 408 386 246 140 199 123 86 57 47 76 97 43 75 53 45
internal_count=556 91 67 45 465 428 408 386 246 140 199 123 86 57 47 76 97 43 75 53 45
is_linear=0
shrinkage=0.05


Tree=14
num_leaves=21
num_cat=0
split_feature=11 20 20 1 19 3 9 5 21 15 17 0 10 6 3 20 20 5 16 15
split_gain=0.00873664 0.0211413 0.0128348 0.010299 0.0113692 0.0124632 0.0183454 0.0158573 0.0124108 0.0123341 0.0137423 0.0109506 0.0105556 0.00934805 0.0104626 0.00799872 0.00606672 0.00557432 0.00529043 0.00562003
threshold=0.03671935820959505 0.023094870093891998 -0.0044634890468696611 11.519999980926515 1.0000000180025095e-35 6217800.0000000009 16.144999504089359 66628.046875000015 107222.86171875002 1.9457817098079111 58.451222000395752 11.91249990463257 23.345000267028812 67054.335937500015 6959000.0000000009 -0.022215041182899905 0.00096272536417452159 66628.046875000015 1.2184705573738555 0.4388337280074604
decision_type=2 2 2 2 2 2 2 2 2 2 2 2 2 2 2 2 2 2 2 2
left_child=1 3 -2 11 15 7 -7 -6 -9 10 -8 17 -10 -4 -15 -5 -12 -1 19 -17
right_child=2 -3 13 4 5 6 9 8 12 -11 16 -13 -14 14 -16 18 -18 -19 -20 -21
leaf_value=0.00056995123757385758 -0.0015470257436390967 0.0012958686471820865 -0.0010364080596694046 -0.0014520501116727421 -0.00063655320326298738 0.0009540460290103827 -0.0019640422009852836 0.0015585892225499266 -0.00022515549286696558 0.00033012772654183211 0.00010702609041523513 0.0015198353910818698 0.0010615747753230868 0.00074617255778451055 -0.00051520868550024681 -8.9016264134373231e-05 -0.0010413870360302415 -0.0004019217672175728 0.0003480782512269798 -0.0011286198865351393
leaf_weight=36 20 34 22 21 28 23 23 30 37 25 23 20 28 35 31 26 23 25 20 26
leaf_count=36 20 34 22 21 28 23 23 30 37 25 23 20 28 35 31 26 23 25 20 26
internal_value=-6.55131e-14 9.73146e-05 -0.000403675 -1.11742e-06 -0.000124113 5.77521e-05 -0.000311684 0.000409167 0.000717379 -0.000621384 -0.000966134 0.00050453 0.000329128 -0.000143823 0.000153706 -0.000593441 -0.00046718 0.000171643 -0.000343014 -0.000608818
internal_weight=556 448 108 414 333 240 117 123 95 94 69 81 65 88 66 93 46 61 72 52
internal_count=556 448 108 414 333 240 117 123 95 94 69 81 65 88 66 93 46 61 72 52
is_linear=0
shrinkage=0.05


Tree=15
num_leaves=21
num_cat=0
split_feature=9 14 0 7 19 19 11 7 20 16 3 5 22 22 22 22 19 3 6 5
split_gain=0.00865453 0.00879441 0.00871369 0.011695 0.00745528 0.00874734 0.00741687 0.00975255 0.00907369 0.0124137 0.011156 0.00806673 0.00696238 0.00623939 0.010044 0.00583254 0.00535805 0.00410874 0.00379377 0.0024489
threshold=47.084999084472663 34.546374988555918 26.623499870300297 81718775365.000015 1.3869664935960004 1.1105955510723413 -0.026348282238283113 41070156060.500008 -0.0031667153739430294 0.6057527851517176 3896950.0000000005 96191.468750000015 110394.19140625001 63567.067382812507 96335.829687500009 84842.90859375002 1.3118476000724872 2905450.0000000005 105648.01171875001 67508.828125000015
decision_type=2 2 2 2 2 2 2 2 2 2 2 2 2 2 2 2 2 2 2 2
left_child=1 2 3 4 5 6 7 -1 9 -8 17 -11 16 -12 15 19 -4 -10 -16 -15
right_child=-2 -3 12 -5 -6 -7 8 -9 10 11 13 -13 -14 14 18 -17 -18 -19 -20 -21
leaf_value=-0.00018290541532527035 -0.0009956842675040076 0.00079381964025944602 -0.0015376590960659087 0.0010955740107769648 -0.00089344834771261307 0.0010451431438836846 0.000234123514225782 0.00098499565650947787 -3.9812619566377678e-05 -0.0013826576811353383 -0.00049605868407525127 -0.00025233672845556782 8.2063880701618353e-05 0.00091470564588061768 -0.00047329012447265155 0.001546768111041853 -0.00039414679465283242 -0.00095291439335726735 0.00035847630311638631 0.0001416282528953161
leaf_weight=33 21 36 20 26 22 21 37 39 22 38 20 27 27 21 26 22 21 28 29 20
leaf_count=33 21 36 20 26 22 21 37 39 22 38 20 27 27 21 26 22 21 28 29 20
internal_value=-1.45257e-13 3.90829e-05 -1.5367e-05 6.76251e-05 1.63328e-06 5.30479e-05 -4.5046e-06 0.000449708 -0.000117275 -0.000496976 8.87335e-05 -0.00091314 -0.00054139 0.000320575 0.000458988 0.000890004 -0.000951958 -0.00055115 -3.47224e-05 0.000537595
internal_weight=556 535 499 431 405 383 362 72 290 102 188 65 68 138 118 63 41 50 55 41
internal_count=556 535 499 431 405 383 362 72 290 102 188 65 68 138 118 63 41 50 55 41
is_linear=0
shrinkage=0.05


Tree=16
num_leaves=21
num_cat=0
split_feature=11 20 20 1 19 3 13 19 5 21 10 0 6 23 20 20 5 5 11 23
split_gain=0.00793491 0.0186229 0.01108 0.00945015 0.0103116 0.010525 0.0163277 0.0146426 0.0143424 0.0110934 0.00971346 0.00947521 0.008149 0.00967279 0.00701419 0.0064417 0.0051013 0.00497981 0.00437572 0.00185952
threshold=0.03671935820959505 0.023094870093891998 -0.0044634890468696611 11.519999980926515 1.0000000180025095e-35 6217800.0000000009 19.510999870300299 1.5210323036875093 66628.046875000015 107222.86171875002 23.345000267028812 11.91249990463257 67054.335937500015 1648.5641398458768 -0.022215041182899905 -0.0032447805451860652 66628.046875000015 100825.51171875001 -0.0044189720756593323 1484.0120956308217
decision_type=2 2 2 2 2 2 2 2 2 2 2 2 2 2 2 2 2 2 2 2
left_child=1 3 -2 11 14 8 17 -8 -6 -10 -11 16 -4 -14 -5 -9 -1 -7 -16 -20
right_child=2 -3 12 4 5 6 7 15 9 10 -12 -13 13 -15 18 -17 -18 -19 19 -21
leaf_value=0.00055610289936238496 -0.0014470263986731879 0.0012176456626655317 -0.00097664865190216169 -0.0013684574522509745 -0.00061583784112631947 0.0010176851053810901 -0.0017331885927706027 0.00031244650296866896 0.0014671071944758298 -0.00022698420277290121 0.0010073529940979955 0.0014291537017561496 0.00079759862504336836 -0.00041804416052602597 -0.00088115889241938334 -0.00087542538364816986 -0.00037362085896893403 -2.6736495929071683e-05 -0.00040716882795095445 0.0002201655148677741
leaf_weight=36 20 34 22 21 28 21 25 25 30 37 28 20 30 36 24 21 25 25 21 27
leaf_count=36 20 34 22 21 28 21 25 25 30 37 28 20 30 36 24 21 25 25 21 27
internal_value=-3.86196e-12 9.2742e-05 -0.000384708 3.58634e-07 -0.000117459 5.57405e-05 -0.000283756 -0.00075919 0.000378677 0.000671797 0.00030473 0.000484719 -0.000143272 0.000134521 -0.000564425 -0.000229843 0.000175069 0.000450065 -0.000329915 -5.42933e-05
internal_weight=556 448 108 414 333 240 117 71 123 95 65 81 88 66 93 46 61 46 72 48
internal_count=556 448 108 414 333 240 117 71 123 95 65 81 88 66 93 46 61 46 72 48
is_linear=0
shrinkage=0.05


Tree=17
num_leaves=20
num_cat=0
split_feature=9 7 17 9 3 12 20 20 2 19 5 16 3 19 6 16 10 1 17
split_gain=0.00772344 0.00821401 0.0166367 0.00690378 0.0133433 0.00871121 0.0109278 0.0170342 0.00923662 0.0219352 0.00810365 0.00652257 0.00788531 0.00559138 0.00828988 0.00476427 0.00428928 0.00354016 0.00240948
threshold=47.084999084472663 81718775365.000015 58.451222000395752 11.934999942779543 4357550.0000000009 12.512000083923342 0.021712119478922157 0.026768976177557139 15.820000171661379 0.30286843452138501 91737.687500000015 0.6057527851517176 4266700.0000000009 0.43151419579590206 112042.62109375001 0.6266018070194791 26.710000038146976 21.604999542236332 51.213034677285627
decision_type=2 2 2 2 2 2 2 2 2 2 2 2 2 2 2 2 2 2 2
left_child=1 3 -3 4 15 -5 8 -8 9 -7 -10 18 -13 17 16 -1 -15 -14 -12
right_child=-2 2 -4 5 -6 6 7 -9 10 -11 11 12 13 14 -16 -17 -18 -19 -20
leaf_value=0.00023660208807529837 -0.00094060059997164418 -0.00022917095246577027 0.0015963907382683829 -0.0008520334349422893 0.0010818241729315273 -0.00048668600771074687 0.001769913739990443 -0.00015531944345976057 -0.001014203825533124 0.0012375252049657451 -0.00034350734083842406 0.00080586506301187914 0.0007175765831065788 -0.00043864323094437306 0.00034128189681723601 -0.00065876384135966264 -0.0013565419652150014 -0.00020155886111751899 -0.0010672481287695953
leaf_weight=39 21 26 24 37 38 39 20 27 35 35 23 24 22 35 24 24 20 20 23
leaf_count=39 21 26 24 37 38 39 20 27 35 35 23 24 22 35 24 24 20 20 23
internal_value=2.40133e-12 3.69208e-05 0.000647099 -2.59842e-05 0.000341846 -0.000122731 -4.4967e-05 0.000663929 -0.000156027 0.000328819 -0.000314782 -0.000186616 -2.20436e-05 -0.000186257 -0.000434083 -0.00010449 -0.000772425 0.000279893 -0.000705378
internal_weight=556 535 50 485 101 384 347 47 300 74 226 191 145 121 79 63 55 42 46
internal_count=556 535 50 485 101 384 347 47 300 74 226 191 145 121 79 63 55 42 46
is_linear=0
shrinkage=0.05


Tree=18
num_leaves=21
num_cat=0
split_feature=11 20 20 20 20 14 17 17 17 20 17 6 4 15 21 16 11 21 19 19
split_gain=0.00756687 0.0160484 0.0101261 0.00938617 0.00798162 0.00711653 0.00679651 0.0104706 0.0133222 0.00871023 0.0131473 0.00766228 0.00847995 0.00666566 0.00621962 0.0111511 0.00547476 0.00437791 0.00354631 0.00290077
threshold=0.03671935820959505 0.023094870093891998 -0.0044634890468696611 0.015608764789392994 0.012044921544546618 21.902375125885012 55.633218647930128 60.791715002970385 58.451222000395752 -0.019397485564480062 40.464814979653731 61631.980468750007 94916.593750000015 0.55115294616493349 66804.195312500015 1.1945162935784965 0.073559773523186114 96710.446875000009 1.5210323036875093 0.56985290520080689
decision_type=2 2 2 2 2 2 2 2 2 2 2 2 2 2 2 2 2 2 2 2
left_child=1 3 -2 4 6 16 9 8 -8 10 -1 -11 13 -13 -9 -16 -4 -14 -17 -19
right_child=2 -3 5 -5 -6 -7 7 14 -10 11 -12 12 17 -15 15 18 -18 19 -20 -21
leaf_value=-4.7732732055010276e-05 -0.0013912420187261888 0.0011348219683200381 -0.00096689678235374491 -0.00097680352338774487 0.00094594149413751438 0.00049647193879756178 0.00013997943706971666 0.0007271915054171468 0.001856446066231001 0.00089345398813574803 -0.0016366488371125382 -0.00019110465021667018 0.0008351146072527627 -0.0013414649251876655 -0.0010023808893336161 -0.00015771155997165753 -2.3602271422503459e-06 0.00024945069933498935 0.00060215224278051347 -0.00047555395570022732
leaf_weight=30 20 34 28 23 24 29 26 23 20 21 23 34 20 20 29 34 31 37 28 22
leaf_count=30 20 34 28 23 24 29 26 23 20 21 23 34 20 20 29 34 31 37 28 22
internal_value=-2.07147e-12 9.05657e-05 -0.00037568 4.80551e-06 6.25472e-05 -0.00014487 4.77757e-06 0.000249518 0.000886269 -0.000184393 -0.000737262 5.8796e-06 -0.000134264 -0.000617164 -7.41729e-06 -0.000193088 -0.000460106 0.00019582 0.000185453 -2.089e-05
internal_weight=556 448 108 414 391 88 367 160 46 207 53 154 133 54 114 91 59 79 62 59
internal_count=556 448 108 414 391 88 367 160 46 207 53 154 133 54 114 91 59 79 62 59
is_linear=0
shrinkage=0.05


Tree=19
num_leaves=22
num_cat=0
split_feature=1 14 0 10 23 23 19 18 18 11 5 3 19 3 16 16 2 7 3 17 16
split_gain=0.00729373 0.00794846 0.00757508 0.0102914 0.00736165 0.0197238 0.0136076 0.00757883 0.00897018 0.00740348 0.00682087 0.00530257 0.00521434 0.00415953 0.00386967 0.00703164 0.00587819 0.0061972 0.00469357 0.00537272 0.00172501
threshold=43.142499923706062 34.546374988555918 26.623499870300297 23.345000267028812 2110.1204235407763 1672.9260695492032 0.051890711188104573 1.130924518674908 0.89525977871659201 -0.019781013251587095 86883.671875000015 5966550.0000000009 0.62002771869618567 8475300.0000000019 0.89753697977546831 0.75481906613101979 11.364999771118166 29276077052.000004 3250500.0000000005 44.588373553835929 0.92022594052624995
decision_type=2 2 2 2 2 2 2 2 2 2 2 2 2 2 2 2 2 2 2 2 2
left_child=1 2 3 4 5 7 -7 8 12 -6 20 -4 14 -13 15 16 17 -1 -18 -20 -11
right_child=-2 -3 11 -5 9 6 -8 -9 -10 10 -12 13 -14 -15 -16 -17 18 -19 19 -21 -22
leaf_value=-0.00011383616017511763 -0.00091405987345968332 0.00075339814757171555 0.00015419905830640348 0.00084722542834290504 0.00042689243938574307 0.00015456450597260604 0.0018055907664417576 -0.00085009638902653652 0.00098112010921547416 -0.0013591784917728299 -7.5864619641159215e-05 -0.0013479983508295846 -0.00080881776911238292 -0.00039664003609990082 -0.00044737616852806838 0.00097109747127563286 -0.00088208586258469552 0.0010895999410422518 0.00059466361244198032 -0.00043458484667553422 -0.0007175794721115381
leaf_weight=23 21 36 21 38 21 24 26 28 22 22 31 20 22 27 37 21 23 20 21 32 20
leaf_count=23 21 36 21 38 21 24 26 28 22 22 31 20 22 27 37 21 23 20 21 32 20
internal_value=-2.4753e-12 3.5879e-05 -1.58859e-05 6.14942e-05 -1.44798e-05 0.000106856 0.0010131 -7.51201e-05 2.30669e-05 -0.000400432 -0.000638429 -0.000506339 -8.28485e-05 -0.000801473 7.38498e-06 0.000127572 -2.12856e-05 0.000445902 -0.000285615 -2.67694e-05 -0.00105366
internal_weight=556 535 499 431 393 299 50 249 221 94 73 68 199 47 177 140 119 43 76 53 42
internal_count=556 535 499 431 393 299 50 249 221 94 73 68 199 47 177 140 119 43 76 53 42
is_linear=0
shrinkage=0.05


Tree=20
num_leaves=21
num_cat=0
split_feature=11 20 20 21 14 11 2 10 13 22 20 15 3 3 10 16 5 13 15 12
split_gain=0.00671686 0.0181338 0.0131943 0.00671411 0.00759598 0.00700672 0.00667052 0.018429 0.0103493 0.0102048 0.0125901 0.0110677 0.00996315 0.00916364 0.00912461 0.00647192 0.00634632 0.00603983 0.00417335 0.00256738
threshold=0.025519254631887204 0.024795948280258776 -0.0051956685070710376 109069.36953125002 11.800500011444095 0.067645161419459324 12.875000000000002 13.995000362396242 15.882500028610233 110394.19140625001 -0.014430986701604918 1.0897745877456211 4798500.0000000009 8256250.0000000009 23.345000267028812 0.59950404070280328 93647.480468750015 11.77349991798401 0.4451726705255879 23.407999992370609
decision_type=2 2 2 2 2 2 2 2 2 2 2 2 2 2 2 2 2 2 2 2
left_child=1 6 -2 4 -4 -6 12 -8 -9 10 11 -10 15 16 -11 17 -12 -1 -18 -20
right_child=2 -3 3 -5 5 -7 7 8 9 14 13 -13 -14 -15 -16 -17 18 -19 19 -21
leaf_value=0.00017140364494559399 -0.0014292612985379741 0.0014623017529906382 0.00045379173679975797 0.00063238194887526341 -0.0011975761554586589 -0.00011870133474825279 -0.0015732024894350616 0.0010142722442453859 -0.0017252469511004167 -0.00019839337225729492 0.00074687829489903388 -0.00014720334751473275 0.0010450957453576849 -0.00088770563214403896 0.00092224840094180165 0.00053454434420148445 -0.0005900164921681777 -0.0010166548116831108 0.00057947940010556276 -0.00020325380901340396
leaf_weight=23 22 23 24 25 27 34 20 23 25 34 32 20 35 26 39 35 27 20 22 20
leaf_count=23 22 23 24 25 27 34 20 23 25 34 32 20 35 26 39 35 27 20 22 20
internal_value=-4.9008e-13 9.6966e-05 -0.000311467 -8.79077e-05 -0.000299758 -0.000596236 1.8655e-05 -0.000109083 1.79546e-07 -9.5021e-05 -0.000305247 -0.00102389 0.000344218 -5.0608e-05 0.000400306 2.9721e-05 0.000164882 -0.000381182 -0.000105029 0.000206749
internal_weight=556 424 132 110 85 61 401 288 268 245 172 45 113 127 73 78 101 43 69 42
internal_count=556 424 132 110 85 61 401 288 268 245 172 45 113 127 73 78 101 43 69 42
is_linear=0
shrinkage=0.05


Tree=21
num_leaves=22
num_cat=0
split_feature=9 7 17 20 14 7 17 14 19 23 2 3 19 10 23 20 9 7 11 7 15
split_gain=0.00662079 0.00727754 0.014025 0.00565807 0.0152659 0.0103626 0.00570769 0.00944378 0.00826633 0.0082421 0.00815776 0.0172219 0.0109373 0.00903466 0.0068907 0.00681125 0.00624264 0.00480988 0.00299356 0.00350958 0.00210577
threshold=47.084999084472663 81718775365.000015 58.451222000395752 -0.014430986701604918 16.428249907493598 37114546910.000008 68.13707773938674 23.400000143051152 -0.47059609253782081 1660.2382582386344 16.020000457763675 4266700.0000000009 0.37974046550261825 12.940000057220461 1205.6959612658688 0.016771647068937082 11.780000209808351 57772106288.000008 0.067645161419459324 34391075076.500008 0.92744254666644854
decision_type=2 2 2 2 2 2 2 2 2 2 2 2 2 2 2 2 2 2 2 2 2
left_child=1 3 -3 4 5 -1 7 8 15 -9 11 -10 -12 -13 -14 16 -5 -6 19 -8 -21
right_child=-2 2 -4 6 17 -7 18 9 10 -11 12 13 14 -15 -16 -17 -18 -19 -20 20 -22
leaf_value=-0.00038775924542513226 -0.00087087313849700714 -0.00019602874705854515 0.0014801281358813867 0.00063522526645101609 -0.0016520159798528767 0.0010507591829255467 6.5202665282413364e-05 0.0014585075996971378 -0.00025223634620488158 0.00019579069350064465 0.00067622184620371893 0.00062429774773371371 -0.0011264172807946475 0.0020056673156796027 1.4019283332379052e-05 -0.0010488983461982571 -0.00049084557726928322 -0.00056857688108547823 0.00026741538371425125 -0.0010579789007169893 -0.00039992033139682351
leaf_weight=31 21 26 24 20 20 21 25 24 36 28 28 29 26 20 27 26 32 21 20 20 31
leaf_count=31 21 26 24 20 20 21 25 24 36 28 28 29 26 20 27 26 32 21 20 20 31
internal_value=-4.81149e-12 3.41838e-05 0.000608527 -2.50268e-05 -0.000375645 0.000193181 5.81557e-05 0.00016681 3.64322e-05 0.000778583 0.000235924 0.000578088 -0.000123137 0.00118812 -0.00054544 -0.000388127 -5.77414e-05 -0.00109708 -0.000276862 -0.000420093 -0.000657983
internal_weight=556 535 50 485 93 52 392 296 244 52 166 85 81 49 53 78 52 41 96 76 51
internal_count=556 535 50 485 93 52 392 296 244 52 166 85 81 49 53 78 52 41 96 76 51
is_linear=0
shrinkage=0.05


Tree=22
num_leaves=23
num_cat=0
split_feature=11 20 20 8 9 13 3 7 22 2 15 23 20 7 20 14 20 17 17 19 15 18
split_gain=0.00631396 0.0129414 0.0079665 0.00625989 0.0146425 0.00963874 0.00791097 0.00786259 0.00716751 0.0105708 0.0130442 0.00623763 0.00931719 0.00608364 0.00558134 0.00595019 0.00556571 0.00539814 0.0054409 0.00330618 0.00722337 0.00320484
threshold=0.03671935820959505 0.024795948280258776 -0.0044634890468696611 13.065000057220461 13.995000362396242 15.882500028610233 4357550.0000000009 28997550554.500004 110394.19140625001 26.12400054931641 1.1368541660299194 1723.3312434981076 0.015608764789392994 48411772397.500008 -0.014872858243332175 23.278749895095828 0.0035264873280295155 53.680892607498016 65.528915237453944 0.20615720918651254 0.4451726705255879 0.60725619543858944
decision_type=2 2 2 2 2 2 2 2 2 2 2 2 2 2 2 2 2 2 2 2 2 2
left_child=1 3 -2 6 -5 -6 19 -8 9 14 -11 12 -4 -10 -7 17 -15 -16 -19 20 -1 -13
right_child=2 -3 11 4 5 8 7 -9 13 10 -12 21 -14 16 15 -17 -18 18 -20 -21 -22 -23
leaf_value=0.00078650322774102767 -0.0012439501739572735 0.0011042097893519457 -0.00046258075718386946 -0.0013497660275210033 0.00090679274074825756 -0.00068993067516203159 0.00012050138598819363 0.0014328582650050522 0.00099812299859794711 -0.0018455691868439318 -0.00020929670426994562 -0.00097160703305195536 0.00097669351810548955 0.0004109871392470918 -0.00052617392081759004 0.00090375822008354585 -0.0006039106287392894 0.00086391106226735509 -0.00023594596518112509 -0.00051791251191223801 -0.00044450915355066008 -0.0001061836408916861
leaf_weight=26 20 29 22 22 26 26 21 25 22 21 29 23 23 35 35 20 22 22 23 22 22 20
leaf_count=26 20 29 22 22 26 26 21 25 22 21 29 23 23 35 35 20 22 22 23 22 22 20
internal_value=3.97646e-12 8.27287e-05 -0.000343171 1.20296e-05 -0.000107549 -1.02938e-05 0.000324378 0.000833739 -0.000103801 -0.0002814 -0.000896531 -0.000138448 0.000273048 0.000291864 -3.73003e-05 0.000132384 1.92722e-05 -6.046e-05 0.000301762 -1.03456e-05 0.000222289 -0.000569085
internal_weight=556 448 108 419 303 281 116 46 255 176 50 88 45 79 126 100 57 80 45 70 48 43
internal_count=556 448 108 419 303 281 116 46 255 176 50 88 45 79 126 100 57 80 45 70 48 43
is_linear=0
shrinkage=0.05


Tree=23
num_leaves=22
num_cat=0
split_feature=1 7 4 20 17 19 7 7 9 3 5 18 12 23 22 23 16 20 19 6 19
split_gain=0.00603953 0.00723964 0.0101581 0.0116935 0.0101959 0.0118746 0.0084697 0.00939151 0.012387 0.0121527 0.0158469 0.00795143 0.00658376 0.00854668 0.00656782 0.00616613 0.00593451 0.00583075 0.00438884 0.00341819 0.00256607
threshold=43.142499923706062 41070156060.500008 83523.000000000015 -0.030512735422328904 62.479048343484727 1.5692664354773196 22524699471.500004 27548338343.000004 11.934999942779543 7233700.0000000009 80647.531250000015 0.58786351285069405 20.207999610900881 2159.7899142297088 110394.19140625001 2132.6244278574609 0.6266018070194791 -0.0044634890468696611 -0.84869957989572242 104146.14062500001 -0.47059609253782081
decision_type=2 2 2 2 2 2 2 2 2 2 2 2 2 2 2 2 2 2 2 2 2
left_child=1 6 -3 -4 5 12 11 -8 16 10 -10 18 15 17 19 -5 -9 -14 -1 -6 -12
right_child=-2 2 3 4 14 -7 7 8 9 -11 20 -13 13 -15 -16 -17 -18 -19 -20 -21 -22
leaf_value=0.00057146291350363755 -0.00083176619151518463 0.0010621679193249176 -0.0010570599680067971 0.001211360178058385 -0.00025585242242414096 0.0015862434776499866 -0.0010444002752927574 0.0010633236370267696 -0.0015281984542121387 0.00062063668636255906 -0.00047660560507903853 0.0011390220304019749 -0.0010145235185821853 0.00080518736596621411 0.0002392123160748988 0.00010647197828486401 -8.761829535831654e-05 5.770023590230267e-05 -0.00035232579650457617 -0.0011409141580224968 0.00031474990886636082
leaf_weight=20 21 31 20 28 24 20 38 24 36 20 21 20 21 22 38 23 21 32 36 20 20
leaf_count=20 21 31 20 28 24 20 38 24 36 20 21 20 21 22 38 23 21 32 36 20 20
internal_value=2.25476e-12 3.26488e-05 0.000208834 0.000102167 0.000203854 0.000454434 -0.000159366 -0.000346242 -0.000159411 -0.000477486 -0.000762713 0.000283236 0.000274782 -2.32595e-05 -0.000242301 0.000713077 0.000526217 -0.000367143 -2.24013e-05 -0.000658153 -9.05785e-05
internal_weight=556 535 279 248 228 146 256 180 142 97 77 76 126 75 82 51 45 53 56 44 41
internal_count=556 535 279 248 228 146 256 180 142 97 77 76 126 75 82 51 45 53 56 44 41
is_linear=0
shrinkage=0.05


Tree=24
num_leaves=24
num_cat=0
split_feature=17 20 7 17 17 20 11 6 20 20 7 20 13 4 14 23 21 5 9 16 12 19 3
split_gain=0.00599596 0.00641935 0.00712861 0.0235515 0.00468065 0.00965998 0.0128135 0.00735568 0.0100262 0.00953699 0.0088311 0.0121119 0.00900871 0.0047286 0.0029039 0.0109145 0.00518357 0.0046057 0.00469485 0.00826917 0.00481943 0.00408735 0.000773674
threshold=79.638012613594825 -0.037484189072199074 81718775365.000015 58.451222000395752 34.013894162838767 -0.014430986701604918 -0.029702249687312329 59111.835937500007 0.013470133615617998 0.011127218201377966 59856576316.000008 0.029044604604070993 16.306999826431277 88165.312500000015 25.117625045776371 1778.149430605125 108236.57187500001 95825.312500000015 11.934999942779543 0.89097397527533906 11.178999805450442 0.37974046550261825 5226450.0000000009
decision_type=2 2 2 2 2 2 2 2 2 2 2 2 2 2 2 2 2 2 2 2 2 2 2
left_child=1 -1 4 -4 -3 6 -6 -7 9 14 11 12 -10 -8 16 -16 17 18 20 -20 -9 -19 -18
right_child=-2 2 3 -5 5 7 13 8 10 -11 -12 -13 -14 -15 15 -17 22 21 19 -21 -22 -23 -24
leaf_value=-0.00078463404004097638 -0.00082876074039155536 0.00057697737142649102 -0.0004790838657671967 0.0018344886045352641 0.00047567325687850829 -0.00086382616311311735 -0.0005230661018488362 -0.00018649743325936254 0.00067280351271620025 -0.0010261269013426501 -0.00023703688310216305 -5.9695802199366013e-05 0.0021735295010148546 -0.0015263313481227671 0.0012806556783471026 -0.00035141661480468303 -0.00029591194092063236 0.0010498029800752799 -0.0008387732507900283 0.00024053327134294835 0.00087246584549906074 9.4630673144517158e-05 -0.00073043855677713604
leaf_weight=23 21 34 22 22 20 20 23 21 20 22 23 21 20 24 20 21 20 21 36 35 22 24 21
leaf_count=23 21 34 22 22 20 20 23 21 20 22 23 21 20 24 20 21 20 21 36 35 22 24 21
internal_value=-2.28224e-12 3.25308e-05 6.92394e-05 0.000677702 1.20334e-05 -3.22248e-05 -0.000584314 6.85652e-05 0.000122305 -2.95865e-05 0.000597871 0.000912673 0.00142317 -0.00103537 6.1384e-05 0.000444716 -1.71991e-05 0.000112061 -5.7012e-05 -0.000306721 0.000355298 0.000540378 -0.000518474
internal_weight=556 535 512 44 468 434 67 367 347 263 84 61 40 47 241 41 200 159 114 71 43 45 41
internal_count=556 535 512 44 468 434 67 367 347 263 84 61 40 47 241 41 200 159 114 71 43 45 41
is_linear=0
shrinkage=0.05


Tree=25
num_leaves=21
num_cat=0
split_feature=8 14 9 10 16 16 7 4 23 19 18 9 23 20 23 22 20 20 0 16
split_gain=0.00591549 0.0105649 0.0070448 0.0108977 0.0108167 0.00813833 0.00612015 0.00976988 0.00831942 0.00792621 0.0116109 0.00785848 0.00718063 0.00647953 0.00708415 0.00542663 0.00507063 0.00446523 0.00329445 0.00269251
threshold=43.739999771118171 34.546374988555918 25.925000190734867 24.220000267028812 1.6218046374722588 1.8062630321451454 40854165805.000008 83523.000000000015 2159.7899142297088 0.66654517548739667 -0.54405763114957295 16.675000190734867 1325.6363187226734 0.01528344480741717 1114.7685518590647 62041.670703125004 -0.0031667153739430294 0.0047021093253757371 12.75500011444092 0.75337041661274506
decision_type=2 2 2 2 2 2 2 2 2 2 2 2 2 2 2 2 2 2 2 2
left_child=1 2 3 5 -4 6 8 -8 12 10 -9 -12 13 14 15 -1 -14 18 -17 -13
right_child=-2 -3 4 -5 -6 -7 7 9 -10 -11 11 19 16 -15 -16 17 -18 -19 -20 -21
leaf_value=0.00085742497772333174 -0.00069523910853353432 0.00098334007208385242 -0.0014066882529401815 0.001007347836275585 8.1555092973368517e-06 -0.0006992912293170752 0.0010928252823143867 -0.00067662002430075689 -0.00091641156260655922 -0.00052503196364139316 0.0015013266212190503 -5.3072041070360379e-05 -9.5564644434489315e-05 -0.00096470477983530152 -0.00088761740364134327 7.6262676809384534e-05 0.00093223910984913051 0.00055269159466578538 -0.00069883567568747545 0.00068835923192091296
leaf_weight=21 29 28 22 28 35 39 31 21 28 36 20 24 20 22 20 29 30 22 26 25
leaf_count=21 29 28 22 28 35 39 31 21 28 36 20 24 20 22 20 29 30 22 26 25
internal_value=8.81359e-13 3.82579e-05 -1.47727e-05 5.26926e-05 -0.000537925 -1.18735e-05 5.96179e-05 0.000297638 -0.0001118 0.000101997 0.000352808 0.000666113 6.77398e-06 -0.00017692 -3.00451e-05 0.00014497 0.000521118 -4.93363e-05 -0.000290147 0.000325209
internal_weight=556 527 499 442 57 414 375 157 218 126 90 69 190 140 118 98 50 77 55 49
internal_count=556 527 499 442 57 414 375 157 218 126 90 69 190 140 118 98 50 77 55 49
is_linear=0
shrinkage=0.05


Tree=26
num_leaves=20
num_cat=0
split_feature=11 20 20 23 16 2 21 15 3 19 18 1 15 23 23 16 16 5 12
split_gain=0.00601654 0.0137284 0.00993934 0.00644029 0.00622853 0.00940466 0.00860782 0.00489425 0.00827009 0.00420395 0.00800862 0.0133116 0.00598045 0.00570302 0.00922616 0.00838455 0.00784529 0.00345543 0.00218517
threshold=0.025519254631887204 0.024795948280258776 -0.0051956685070710376 1332.9137764194168 2.6497978680849803 26.12400054931641 109166.07187500001 0.77103337598872412 7152700.0000000009 1.0000000180025095e-35 -0.64412391534349023 11.519999980926515 0.41072615474138019 1680.9779622737378 978.06812708432642 1.021980012134071 0.6808700336652953 95767.765625000015 12.201999855041505
decision_type=2 2 2 2 2 2 2 2 2 2 2 2 2 2 2 2 2 2 2
left_child=1 4 -2 -4 5 9 -7 -5 -9 10 11 -1 -13 14 16 -15 -11 -16 -12
right_child=2 -3 3 7 -6 6 -8 8 -10 13 18 12 -14 15 17 -17 -18 -19 -20
leaf_value=0.0010944827498169617 -0.0012649504314388403 0.001279740287092231 0.00042587505319572401 -0.00089545584877279399 0.00063268316099358921 -0.001235150129826346 9.4058146784109769e-05 0.00060516681658792431 -0.00076722463903327784 -8.4152532060845553e-05 -0.00033640230872801377 0.00032572772276277345 -0.00069903511753571887 0.0010500982440321538 -0.00084715220085666365 -0.00017066395058381288 0.0009721697642817162 -3.6089061904931444e-05 -0.0010418506727032566
leaf_weight=25 22 23 38 28 38 29 21 23 21 39 21 24 35 39 29 22 32 24 23
leaf_count=25 22 23 38 28 38 29 21 23 21 39 21 24 35 39 29 22 32 24 23
internal_value=3.36971e-13 9.17719e-05 -0.000294783 -0.000100749 2.36341e-05 -4.01231e-05 -0.000676883 -0.00037869 -4.98382e-05 6.15957e-05 -0.000158701 0.000127539 -0.000282182 0.000214017 1.93059e-05 0.000609823 0.000391936 -0.000479878 -0.000705159
internal_weight=556 424 132 110 401 363 50 72 44 313 128 84 59 185 124 61 71 53 44
internal_count=556 424 132 110 401 363 50 72 44 313 128 84 59 185 124 61 71 53 44
is_linear=0
shrinkage=0.05


Tree=27
num_leaves=22
num_cat=0
split_feature=11 11 20 20 13 8 9 13 16 20 3 22 1 7 5 7 15 7 19 16 3
split_gain=0.00565072 0.00815845 0.00707738 0.00668574 0.00720115 0.00506871 0.011841 0.00693764 0.00661791 0.0119772 0.00804754 0.00770144 0.00744981 0.00724355 0.0090625 0.00649449 0.00429938 0.00503514 0.00434755 0.00210063 0.00264452
threshold=0.054299053615725741 0.097649144440471583 0.015608764789392994 0.023094870093891998 17.043500328063967 13.065000057220461 13.84500026702881 15.882500028610233 2.6497978680849803 -0.018189925517358371 5588500.0000000009 96475.606640625003 39.380500793457038 56882808791.500008 98866.789062500015 40145887899.000008 0.4505274001278306 28827307662.000004 0.22884253793799522 0.4776957864058991 4266700.0000000009
decision_type=2 2 2 2 2 2 2 2 2 2 2 2 2 2 2 2 2 2 2 2 2
left_child=3 2 -2 5 -5 15 -7 -8 9 -9 11 -11 -10 14 -12 16 18 -18 -1 -13 -21
right_child=1 -3 -4 4 -6 6 7 8 12 10 13 19 -14 -15 -16 -17 17 -19 -20 20 -22
leaf_value=0.00075796029064804319 -0.0014160106288424383 0.00023501803152612411 -0.00015912083576300316 1.1026858410332353e-05 0.0013527750573121011 -0.001277289086574456 0.00071423815744969159 -0.0010491385929627642 0.0010042743515021777 0.0011513391966582276 -0.00080535959613581114 -0.00036577537711392243 -0.00026190521533689685 -0.0010325701724625482 0.00039976445662502489 0.0011021044660265034 -0.00081223748995745107 0.00022870907067464521 -0.00012696835240247944 0.0006633620549109765 -8.9422015038767973e-05
leaf_weight=35 24 30 21 20 20 20 29 36 26 20 26 22 21 29 39 20 21 26 23 20 28
leaf_count=35 24 30 21 20 20 20 29 36 26 20 26 22 21 29 39 20 21 26 23 20 28
internal_value=2.30122e-12 -0.00040367 -0.000829462 6.29423e-05 0.000681901 6.80094e-06 -9.98122e-05 -2.0253e-05 -0.000100029 -0.000215086 -5.19017e-05 0.000286035 0.000438535 -0.000375458 -8.22852e-05 0.000276319 0.000119027 -0.000236395 0.00040704 3.88052e-05 0.000224238
internal_weight=556 75 45 481 40 441 316 296 267 220 184 90 47 94 65 125 105 47 58 70 48
internal_count=556 75 45 481 40 441 316 296 267 220 184 90 47 94 65 125 105 47 58 70 48
is_linear=0
shrinkage=0.05


Tree=28
num_leaves=20
num_cat=0
split_feature=11 20 20 23 16 2 21 15 3 19 18 1 15 23 23 16 16 16 18
split_gain=0.00520109 0.0117856 0.00855712 0.00599435 0.00509873 0.00795216 0.00736494 0.00440069 0.00722855 0.00395525 0.00721324 0.0116282 0.0052987 0.00516499 0.00794474 0.00734758 0.00684733 0.00310635 0.0021798
threshold=0.025519254631887204 0.024795948280258776 -0.0051956685070710376 1332.9137764194168 2.6497978680849803 26.12400054931641 109166.07187500001 0.77103337598872412 7152700.0000000009 1.0000000180025095e-35 -0.64412391534349023 11.519999980926515 0.41072615474138019 1680.9779622737378 978.06812708432642 0.73227265634384919 0.6808700336652953 0.63043253485378636 -0.31309092368449937
decision_type=2 2 2 2 2 2 2 2 2 2 2 2 2 2 2 2 2 2 2
left_child=1 4 -2 -4 5 9 -7 -5 -9 10 11 -1 -13 14 16 -15 -11 -16 -12
right_child=2 -3 3 7 -6 6 -8 8 -10 13 18 12 -14 15 17 -17 -18 -19 -20
leaf_value=0.0010197557345964015 -0.0011742644265971402 0.001186033541782071 0.00041402289823867918 -0.00085220442457024806 0.00057324255118912436 -0.0011374109929200697 9.2095750984472462e-05 0.00056201328736041551 -0.00072105054277926683 -7.8404915014592324e-05 -0.0010261774245340018 0.00030528780528887487 -0.00065929813609857642 0.0012192451254052755 2.988723075153151e-05 0.00010959393860373115 0.00090844837868644392 -0.00075272862859492311 -0.00032232491642141464
leaf_weight=25 22 23 38 28 38 29 21 23 21 39 22 24 35 26 21 35 32 32 22
leaf_count=25 22 23 38 28 38 29 21 23 21 39 22 24 35 26 21 35 32 32 22
internal_value=2.07777e-12 8.53265e-05 -0.000274079 -9.40419e-05 2.21937e-05 -3.54919e-05 -0.000621018 -0.000362187 -5.03581e-05 5.80426e-05 -0.000155638 0.000116016 -0.000266924 0.000205887 2.05877e-05 0.00058256 0.000366374 -0.000442636 -0.000674251
internal_weight=556 424 132 110 401 363 50 72 44 313 128 84 59 185 124 61 71 53 44
internal_count=556 424 132 110 401 363 50 72 44 313 128 84 59 185 124 61 71 53 44
is_linear=0
shrinkage=0.05


Tree=29
num_leaves=22
num_cat=0
split_feature=8 14 0 10 23 23 16 4 2 6 15 23 19 3 6 11 5 6 12 12 16
split_gain=0.00522575 0.00869803 0.00430315 0.00866018 0.00651677 0.0148775 0.0092969 0.0141503 0.00698123 0.00787002 0.00707605 0.00852168 0.00577224 0.00553312 0.00537398 0.00536969 0.00503834 0.00401507 0.00370852 0.00293294 0.00148813
threshold=43.739999771118171 36.350125122070317 26.623499870300297 23.345000267028812 2110.1204235407763 1540.769766562554 0.57341001344368281 98985.566406250015 19.857500076293949 59111.835937500007 0.53344944085822632 687.68428941920718 0.24108237474384106 4828800.0000000009 112042.62109375001 -0.019781013251587095 86883.671875000015 104659.16406250001 20.529999923706058 11.854500102996829 0.92022594052624995
decision_type=2 2 2 2 2 2 2 2 2 2 2 2 2 2 2 2 2 2 2 2 2
left_child=1 2 3 4 5 8 -7 -8 9 -1 11 -11 -12 19 17 -6 20 -4 -10 -13 -17
right_child=-2 -3 14 -5 15 6 7 -9 18 10 12 13 -14 -15 -16 16 -18 -19 -20 -21 -22
leaf_value=-0.00085333524900436583 -0.00065345152026315319 0.0010091749776620419 -0.00028848863803432323 0.00077481292813134039 0.00032579937861079261 3.7925905161062952e-05 0.0021791321670752949 0.0002982857079769019 -0.001094412066529251 -0.00028945792452351928 -0.00089907391666201877 0.00084353202850252274 0.00012364467740455341 0.0013084292400610421 0.00029639660244191128 -0.0012221127280182291 -9.7973161562901721e-05 -0.001191572492971318 -0.00023973844518574577 3.1183349958155305e-05 -0.00062619262549560521
leaf_weight=21 29 22 32 38 21 27 20 20 22 29 22 20 37 26 22 22 31 20 30 25 20
leaf_count=21 29 22 32 38 21 27 20 20 22 29 22 20 37 26 22 22 31 20 30 25 20
internal_value=2.91742e-12 3.59584e-05 -6.43912e-06 5.40385e-05 -1.56547e-05 9.85065e-05 0.000754811 0.00123871 -9.10299e-05 5.63905e-05 0.000176543 0.000432751 -0.000257708 0.000727738 -0.000358681 -0.000378784 -0.000581473 -0.000635829 -0.000601331 0.000392227 -0.000938341
internal_weight=556 527 505 431 393 299 67 40 232 180 159 100 59 71 74 94 73 52 52 45 42
internal_count=556 527 505 431 393 299 67 40 232 180 159 100 59 71 74 94 73 52 52 45 42
is_linear=0
shrinkage=0.05


Tree=30
num_leaves=23
num_cat=0
split_feature=17 20 7 17 22 5 5 19 11 20 12 20 18 14 17 17 15 14 22 17 11 23
split_gain=0.00503663 0.00538108 0.0061238 0.0206145 0.00424774 0.00770481 0.00704535 0.010744 0.00646343 0.0119441 0.00616784 0.00672535 0.00613136 0.00566484 0.00535282 0.00792192 0.00656314 0.00487978 0.00271911 0.00216068 0.00207308 0.00181871
threshold=79.638012613594825 -0.037484189072199074 81718775365.000015 58.451222000395752 58713.233203125004 65793.031250000015 81551.246093750015 0.19680106663083555 -0.032435449389978215 -0.015854885813083804 12.201999855041505 -0.0023493587335671191 0.58786351285069405 34.546374988555918 59.325794996761481 49.027041767334083 0.62403130439842813 20.777750015258793 99703.40078125002 71.282572983374834 0.014570529197172279 1764.7692787074413
decision_type=2 2 2 2 2 2 2 2 2 2 2 2 2 2 2 2 2 2 2 2 2 2
left_child=1 -1 4 -4 -3 10 7 -7 18 -10 11 -6 -9 14 15 17 -17 -11 -8 20 21 -16
right_child=-2 2 3 -5 5 6 8 12 9 13 -12 -13 -14 -15 19 16 -18 -19 -20 -21 -22 -23
leaf_value=-0.00071835245572678423 -0.00075957358792601596 0.00070537995142374373 -0.00045487942790549082 0.0017096311605366119 0.00054763195803388955 0.001473689767798143 0.00014922730868420332 -0.00039989556076202117 -0.0011167893260588043 -0.00063739006453782652 -0.0010503856411027113 -0.0006272757450993783 0.0007487893847393848 0.00063542640079200898 -0.00064124160430351778 0.0011582740470587921 -4.6493252157233662e-05 0.00022286571438598913 0.00097371333875344128 2.1568900410784409e-05 -0.00090360625326866293 9.2850250352750582e-06
leaf_weight=23 21 21 22 22 21 21 20 26 27 34 29 29 21 30 22 26 20 32 20 24 24 21
leaf_count=23 21 21 22 22 21 21 20 26 27 34 29 29 21 30 22 26 20 32 20 24 24 21
internal_value=2.85935e-12 2.9815e-05 6.34241e-05 0.000627376 1.0403e-05 -2.22469e-05 7.39335e-05 0.000533453 -3.02241e-05 -0.000121254 -0.000470277 -0.000133815 0.000113347 -5.89156e-06 -0.000100668 0.000130765 0.000634462 -0.000220296 0.00056147 -0.000385508 -0.000531327 -0.000323543
internal_weight=556 535 512 44 468 447 368 68 300 260 79 50 47 233 203 112 46 66 40 91 67 43
internal_count=556 535 512 44 468 447 368 68 300 260 79 50 47 233 203 112 46 66 40 91 67 43
is_linear=0
shrinkage=0.05


Tree=31
num_leaves=22
num_cat=0
split_feature=8 14 9 16 10 19 19 20 20 11 8 10 16 0 13 13 15 15 15 23 19
split_gain=0.00506972 0.00765753 0.0040837 0.0106425 0.0096085 0.00700535 0.00697669 0.00691185 0.00635984 0.00447454 0.00528439 0.0119876 0.00848907 0.0106799 0.00598172 0.00593656 0.00312986 0.0067711 0.00280261 0.00276973 0.00250602
threshold=43.739999771118171 36.350125122070317 25.925000190734867 1.6218046374722588 24.220000267028812 1.3407684406434031 1.0925978304186532 0.029044604604070993 0.021041142182634979 0.015016887466534181 13.065000057220461 13.894999980926515 0.53158281304785848 12.335000038146974 16.019999885559084 11.63849997520447 0.92744254666644854 0.47375721259698561 1.5201903526620737 918.53504493197556 0.19680106663083555
decision_type=2 2 2 2 2 2 2 2 2 2 2 2 2 2 2 2 2 2 2 2 2
left_child=1 2 4 -4 5 6 7 8 9 10 12 -12 15 -14 -13 -1 17 19 -5 -16 -11
right_child=-2 -3 3 18 -6 -7 -8 -9 -10 20 11 14 13 -15 16 -17 -18 -19 -20 -21 -22
leaf_value=0.00039031935686414894 -0.00064362224687195934 0.00094857014112428514 -0.0012681330993390557 0.00051866137029719537 0.00094572850877219544 -0.00090106739274536582 0.00090134898266776222 -0.00068374320062243252 0.00085706196816476158 -6.0579604697912671e-05 -0.0011791169271666811 0.00087805097560661243 0.00027185773020998262 0.0016929829656146468 0.00011911647030501626 -0.00079992401384515693 -0.00050785088503195366 0.00058699145945291476 -0.00030836387675316516 -0.00067030635016271855 -0.0007182925016968512
leaf_weight=22 29 22 22 20 28 21 22 35 23 28 22 20 39 20 20 20 29 38 21 25 30
leaf_count=22 29 22 22 20 28 21 22 35 23 28 22 20 39 20 20 20 29 38 21 25 30
internal_value=-7.93697e-13 3.54175e-05 -4.36336e-06 -0.000380974 4.93164e-05 -1.13105e-05 3.62337e-05 -1.50669e-05 5.45869e-05 -4.38093e-06 8.57795e-05 -9.85512e-05 0.000366838 0.000753595 8.15431e-05 -0.000176463 -6.06904e-05 9.55463e-05 9.50631e-05 -0.000319452 -0.000400776
internal_weight=556 527 505 63 442 414 393 371 336 313 255 154 101 59 132 42 112 83 41 45 58
internal_count=556 527 505 63 442 414 393 371 336 313 255 154 101 59 132 42 112 83 41 45 58
is_linear=0
shrinkage=0.05


Tree=32
num_leaves=21
num_cat=0
split_feature=9 7 7 7 3 9 5 4 11 19 17 21 12 15 18 21 19 16 7 20
split_gain=0.00464429 0.00518839 0.00726752 0.00775523 0.00974701 0.00991903 0.0130329 0.00712 0.0211484 0.006658 0.00742058 0.00796404 0.00620255 0.0061345 0.00595881 0.00475921 0.00332597 0.00314409 0.00299525 0.00166311
threshold=47.084999084472663 41070156060.500008 22524699471.500004 27548338343.000004 7361600.0000000009 11.934999942779543 80647.531250000015 89058.804687500015 0.003467518893147004 -0.55868186979296686 62.479048343484727 97354.607031250009 20.141000175476076 0.52170086708587171 0.58786351285069405 107402.00000000001 -0.84869957989572242 0.62252591990636363 63904306016.000008 0.0011917914080620264
decision_type=2 2 2 2 2 2 2 2 2 2 2 2 2 2 2 2 2 2 2 2
left_child=1 2 14 -4 5 17 -7 8 -3 -9 11 -11 -13 -12 16 -15 -1 -5 -14 -8
right_child=-2 7 3 4 -6 6 19 9 -10 10 13 12 18 15 -16 -17 -18 -19 -20 -21
leaf_value=0.00052846101985778667 -0.00072938938413114691 0.001904468638600693 -0.00094145771692733665 0.00071734511829245925 0.00083022631049309639 -0.0013462924222241983 0.000280164934520144 -0.00066892054186340564 -0.00031383993641198192 0.0013345682591898366 -0.00084278351906687038 0.00081333225052731 0.00033842624698687969 -0.00038327815855154768 0.0010169037349987775 0.00047494337821262894 -0.0002757262536963228 -0.00014885025200783275 -0.00033387273740388354 -0.00034981844364665452
leaf_weight=20 21 21 38 22 22 36 20 27 22 20 25 32 30 30 20 35 36 20 37 22
leaf_count=20 21 21 38 22 22 36 20 27 22 20 25 32 30 30 20 35 36 20 37 22
internal_value=-2.18148e-12 2.86302e-05 -0.000133922 -0.000307028 -0.000137251 -0.000314622 -0.000648195 0.000177782 0.00076952 6.99649e-05 0.000165419 0.000424517 0.000240668 -0.000177166 0.000276068 7.88411e-05 1.14835e-05 0.000304871 -3.28433e-05 -4.98264e-05
internal_weight=556 535 256 180 142 120 78 279 43 236 209 119 99 90 76 65 56 42 67 42
internal_count=556 535 256 180 142 120 78 279 43 236 209 119 99 90 76 65 56 42 67 42
is_linear=0
shrinkage=0.05


Tree=33
num_leaves=23
num_cat=0
split_feature=17 20 7 17 22 5 5 19 11 20 18 12 20 14 17 3 11 17 22 17 3 6
split_gain=0.00456354 0.00489335 0.00558814 0.0180931 0.00371584 0.00662796 0.00623468 0.00938969 0.00572428 0.0106627 0.00537606 0.00519081 0.00586442 0.0051453 0.00429156 0.00708355 0.00713452 0.0045043 0.00249057 0.00181927 0.00188146 0.00220097
threshold=79.638012613594825 -0.037484189072199074 81718775365.000015 58.451222000395752 58713.233203125004 65793.031250000015 81551.246093750015 0.19680106663083555 -0.032435449389978215 -0.015854885813083804 0.58786351285069405 12.201999855041505 -0.0023493587335671191 34.546374988555918 59.325794996761481 3875250.0000000005 0.003467518893147004 49.298649768007643 99703.40078125002 71.282572983374834 5944600.0000000009 104146.14062500001
decision_type=2 2 2 2 2 2 2 2 2 2 2 2 2 2 2 2 2 2 2 2 2 2
left_child=1 -1 4 -4 -3 11 7 -7 18 -10 -9 12 -6 14 15 -11 17 -17 -8 20 -16 -22
right_child=-2 2 3 -5 5 6 8 10 9 13 -12 -13 -14 -15 19 16 -18 -19 -20 -21 21 -23
leaf_value=-0.00068507593469289334 -0.00072302045854961592 0.00065979077383720628 -0.00041475887436800724 0.0016130644976246088 0.00050870211174090698 0.0013797069104233136 0.00013276382320327683 -0.0003726041940003947 -0.0010558146687496143 -0.00053206078338271547 0.00070300508135308826 -0.00096848160896554659 -0.0005884303209062763 0.00060500142601085829 -0.00016287581664208256 -0.00029488132341237575 0.0011762132633157309 0.00057014070248610717 0.00092184123059269041 2.1961268430459313e-05 -0.00033217011296073908 -0.0010739539678615985
leaf_weight=23 21 21 22 22 21 21 20 26 27 31 21 29 29 30 27 34 20 27 20 24 20 20
leaf_count=23 21 21 22 22 21 21 20 26 27 31 21 29 29 30 27 34 20 27 20 24 20 20
internal_value=-8.49952e-13 2.83802e-05 6.043e-05 0.000599153 9.78088e-06 -2.07565e-05 6.84499e-05 0.000500724 -2.95323e-05 -0.000115199 0.000107987 -0.0004363 -0.000127635 -6.20086e-06 -9.65263e-05 0.000110698 0.000356693 8.79973e-05 0.000527303 -0.000351572 -0.000485375 -0.000703062
internal_weight=556 535 512 44 468 447 368 68 300 260 47 79 50 233 203 112 81 61 40 91 67 40
internal_count=556 535 512 44 468 447 368 68 300 260 47 79 50 233 203 112 81 61 40 91 67 40
is_linear=0
shrinkage=0.05


Tree=34
num_leaves=22
num_cat=0
split_feature=8 14 0 2 3 11 7 16 3 13 10 11 16 7 14 20 7 7 17 15 23
split_gain=0.00451758 0.00669824 0.00372994 0.00705037 0.00442708 0.00394147 0.00515666 0.00519776 0.0151348 0.00671981 0.00541519 0.00515418 0.00498468 0.00482396 0.00407476 0.00361052 0.00298197 0.00280978 0.0043275 0.00243713 0.00176195
threshold=43.739999771118171 36.350125122070317 26.623499870300297 23.670000076293949 6563600.0000000009 0.03671935820959505 72915502305.500015 0.87928135355858394 7190400.0000000009 11.939500141143801 11.25999975204468 0.067645161419459324 1.130773230232792 31651125318.500004 12.854749989509584 0.00096272536417452159 44151631411.000008 56313065760.500008 38.910300050165596 0.32100600677734509 1680.9779622737378
decision_type=2 2 2 2 2 2 2 2 2 2 2 2 2 2 2 2 2 2 2 2 2
left_child=1 2 3 5 -4 6 7 8 9 10 19 -7 -9 -14 -11 -6 -15 18 -16 -1 -13
right_child=-2 -3 4 -5 15 11 -8 12 -10 14 -12 20 13 16 17 -17 -18 -19 -20 -21 -22
leaf_value=0.00048600032976537483 -0.00060756378120302174 0.0008874759437854995 0.00012376146299967303 0.00088531032961327585 -0.00021245201986113736 -0.00074398640293086812 0.00083728033213923314 -0.00074258908063971581 0.0014833001792430879 -0.00071884201925372353 0.00098851332676041723 0.00038985123613937984 0.00054638844216242427 -0.00077644064505875575 -0.00033212881750875606 -0.0011290276522881218 2.292955505254213e-05 -0.00054246033774688843 0.00051574710545109533 -0.0002613341975423585 -0.00026589287852402777
leaf_weight=20 29 22 31 24 22 37 21 35 20 29 26 21 25 20 27 21 28 20 34 24 20
leaf_count=20 29 22 31 24 22 37 21 35 20 29 26 21 25 20 27 21 28 20 34 24 20
internal_value=-5.42752e-13 3.34333e-05 -3.77252e-06 5.25332e-05 -0.000331715 3.42592e-06 7.91879e-05 2.74998e-05 0.000178438 3.34535e-05 0.000416419 -0.000316134 -0.000252016 -1.68092e-05 -0.000210252 -0.000660082 -0.000310141 -2.8164e-05 0.000140458 7.83633e-05 6.99761e-05
internal_weight=556 527 505 431 74 407 329 308 200 180 70 78 108 73 110 43 48 81 61 44 41
internal_count=556 527 505 431 74 407 329 308 200 180 70 78 108 73 110 43 48 81 61 44 41
is_linear=0
shrinkage=0.05


Tree=35
num_leaves=22
num_cat=0
split_feature=11 11 20 20 13 8 9 3 7 13 3 15 10 23 9 17 15 19 15 7 21
split_gain=0.00414445 0.00648422 0.00539909 0.00478069 0.00565918 0.0039293 0.00838471 0.005738 0.00908214 0.00553955 0.00515719 0.00779044 0.00767448 0.0087121 0.00616435 0.00458997 0.00289573 0.00237647 0.00433568 0.00221317 0.00527025
threshold=0.054299053615725741 0.097649144440471583 0.015608764789392994 0.023094870093891998 17.043500328063967 13.065000057220461 13.84500026702881 4357550.0000000009 28260165075.000004 15.882500028610233 6731550.0000000009 2.0049825013168339 23.345000267028812 1514.2083561642762 25.914999961853031 64.719220424639431 0.91422099164457271 0.20615720918651254 0.4451726705255879 53823928435.000008 96983.450781250009
decision_type=2 2 2 2 2 2 2 2 2 2 2 2 2 2 2 2 2 2 2 2 2
left_child=3 2 -2 5 -5 7 -7 17 -9 -8 12 14 15 -14 16 19 -12 18 -1 20 -11
right_child=1 -3 -4 4 -6 6 9 8 -10 10 11 -13 13 -15 -16 -17 -18 -19 -20 -21 -22
leaf_value=0.0005998338917449404 -0.0012376080888013045 0.00022368857229594142 -0.00013981322533384498 -1.7423164244974035e-05 0.0011720281513407827 -0.0010782727645710112 0.00063583399590650769 -0.0001907293543808919 0.0011675086956529413 -0.00022320752886439404 -0.00067312580537294379 0.00031842963784082059 0.0013859061471885072 0.00010236432313268424 -0.0012155398575926265 -0.00085582950376192454 0.00014772120353189253 -0.00044981506619781915 -0.00034258899673738556 -0.00032319161869444156 0.00080267322981464025
leaf_weight=26 24 30 21 20 20 20 29 20 32 31 22 29 20 39 29 20 21 24 23 35 21
leaf_count=26 24 30 21 20 20 20 29 20 32 31 22 29 20 39 29 20 21 24 23 35 21
internal_value=-1.56056e-13 -0.000345707 -0.000725304 5.39044e-05 0.000577302 6.43065e-06 -8.74378e-05 0.00024373 0.000645109 -2.04895e-05 -9.17756e-05 -0.000373493 7.9631e-05 0.000537463 -0.000652184 -0.000172819 -0.000272247 -4.21839e-05 0.000157472 -1.58046e-05 0.00019109
internal_weight=556 75 45 481 40 441 316 125 52 296 267 101 166 59 72 107 43 73 49 87 52
internal_count=556 75 45 481 40 441 316 125 52 296 267 101 166 59 72 107 43 73 49 87 52
is_linear=0
shrinkage=0.05


Tree=36
num_leaves=22
num_cat=0
split_feature=17 20 19 7 3 17 20 17 14 3 20 20 13 19 19 17 14 10 19 18 19
split_gain=0.00411931 0.00430528 0.00470183 0.0103117 0.00794724 0.00839627 0.00710732 0.0083356 0.0113989 0.00711346 0.00560566 0.00422643 0.00432962 0.00264962 0.00465239 0.00526558 0.00471373 0.00778036 0.00558135 0.00365602 0.00129093
threshold=79.638012613594825 -0.037484189072199074 1.1604305273171744 78164736784.500015 7942250.0000000009 62.689069748390075 0.029044604604070993 36.324140931091158 24.485750198364261 4645300.0000000009 0.013470133615617998 0.0099920583373336331 22.372999858856204 0.62002771869618567 -0.45260569787970945 69.555143896844925 17.525500035285955 13.585000038146974 0.20615720918651254 -0.74840141378238012 0.96132431101763405
decision_type=2 2 2 2 2 2 2 2 2 2 2 2 2 2 2 2 2 2 2 2 2
left_child=1 -1 6 4 5 -4 7 9 10 -3 11 12 13 14 19 16 17 18 -16 -9 -15
right_child=-2 2 3 -5 -6 -7 -8 8 -10 -11 -12 -13 -14 20 15 -17 -18 -19 -20 -21 -22
leaf_value=-0.00064225004781569034 -0.000686929302866615 8.5320637725968052e-05 0.0010949412660449054 0.0013420769210261783 -0.00057031001879608836 -7.8585925013093026e-05 -0.00067366289095891841 4.2708356340881442e-05 -0.0010366189077979438 0.0012362226011464372 0.00063101710651868167 -0.0006905998459526176 0.00070457795617195581 -0.00055328353951153984 0.00079731724842492004 -0.00049083930964116012 -0.00026038741430966183 0.0014379503170493992 -0.00031664537415384652 -0.00087262673012446614 -4.8768120662619671e-05
leaf_weight=23 21 29 27 21 29 35 38 24 27 25 35 23 21 32 23 20 20 20 22 20 21
leaf_count=23 21 29 27 21 29 35 38 24 27 25 35 23 21 32 23 20 20 20 22 20 21
internal_value=2.63688e-13 2.69636e-05 5.70259e-05 0.000343371 0.0001129 0.000432466 -2.31507e-05 4.51352e-05 -5.53277e-05 0.000618146 3.896e-05 -4.52757e-05 2.12824e-05 -4.97533e-05 5.82486e-05 0.00023911 0.000410863 0.000617402 0.000252713 -0.000373353 -0.000353381
internal_weight=556 535 512 112 91 62 400 362 308 54 281 246 223 202 149 105 85 65 45 44 53
internal_count=556 535 512 112 91 62 400 362 308 54 281 246 223 202 149 105 85 65 45 44 53
is_linear=0
shrinkage=0.05


Tree=37
num_leaves=22
num_cat=0
split_feature=9 7 17 17 17 6 20 20 20 9 6 7 9 23 10 15 13 23 0 5 5
split_gain=0.00432408 0.00455902 0.0079403 0.00340953 0.00485657 0.00622465 0.0125784 0.00479737 0.00768451 0.00450725 0.00722169 0.0034098 0.0158466 0.00559477 0.00525123 0.00658071 0.00474299 0.00360945 0.00335868 0.00250775 0.00331149
threshold=46.959999084472663 81718775365.000015 58.451222000395752 28.906512935923228 34.013894162838767 59111.835937500007 0.013470133615617998 0.029044604604070993 0.021961025636153767 25.914999961853031 112479.76953125001 41070156060.500008 16.625000000000004 2033.4694762676811 19.800000190734867 0.55115294616493349 11.821000051498414 756.46957946685632 19.217499732971195 111996.00000000001 96191.468750000015
decision_type=2 2 2 2 2 2 2 2 2 2 2 2 2 2 2 2 2 2 2 2 2
left_child=1 3 -3 -1 -5 -6 9 8 -8 11 -11 13 -13 14 15 16 17 -7 -14 20 -20
right_child=-2 2 -4 4 5 6 7 -9 -10 10 -12 12 18 -15 -16 -17 -18 -19 19 -21 -22
leaf_value=-0.00065736524607928014 -0.00068697132942774765 -0.00013569673768506617 0.0011375452178375176 0.00075236134497182715 -0.00076151932632826551 -8.421276943408884e-06 0.00035868406858980962 3.6969691885773234e-05 0.0015725998452002057 -0.00099272402749744351 0.00019337189999835876 0.0012361642930988671 -0.00069945323353056755 -0.00080909107747519852 0.00068291559443986493 -0.00071589100912924073 -0.00031350572684651093 0.00094150632727178166 -0.00017693727488222067 -0.00033896015956997872 0.00073293780398671522
leaf_weight=20 22 25 24 21 27 20 32 27 22 33 21 27 21 29 21 38 38 20 20 28 20
leaf_count=20 22 25 24 21 27 20 32 27 22 33 21 27 21 29 21 38 38 20 20 28 20
internal_value=-1.56708e-13 2.83022e-05 0.000487932 -1.81346e-05 9.35916e-06 -2.57828e-05 2.18548e-05 0.000581151 0.000853242 -0.000112976 -0.000531465 -3.28395e-05 0.000175147 -0.000178179 -4.46288e-05 -0.000176339 8.6519e-05 0.000466543 -0.000146735 2.39577e-05 0.000278
internal_weight=556 534 49 485 465 444 417 81 54 336 54 282 116 166 137 116 78 40 89 68 40
internal_count=556 534 49 485 465 444 417 81 54 336 54 282 116 166 137 116 78 40 89 68 40
is_linear=0
shrinkage=0.05


Tree=38
num_leaves=21
num_cat=0
split_feature=9 7 7 7 3 3 4 20 11 20 22 17 13 22 4 7 20 19 11 23
split_gain=0.00390248 0.00413093 0.00652634 0.0066156 0.0086923 0.00845669 0.00603139 0.00629623 0.00774322 0.00549197 0.00972776 0.00527547 0.00468776 0.00589367 0.00368285 0.00550559 0.00646768 0.00375561 0.00400331 0.00316897
threshold=46.959999084472663 41070156060.500008 22524699471.500004 27548338343.000004 7361600.0000000009 5134550.0000000009 83523.000000000015 -0.030512735422328904 -0.032435449389978215 0.029044604604070993 96475.606640625003 65.412448815115624 11.821000051498414 83064.853125000009 104534.09375000001 47147819584.000008 0.014234916691008738 0.69036047665693767 0.0093456327923242561 1325.6363187226734
decision_type=2 2 2 2 2 2 2 2 2 2 2 2 2 2 2 2 2 2 2 2
left_child=1 2 11 -4 5 12 -3 -8 -9 10 -10 19 -5 -14 -12 -16 17 -17 -19 -1
right_child=-2 6 3 4 -6 -7 7 8 9 -11 14 -13 13 -15 15 16 -18 18 -20 -21
leaf_value=-0.00030492163108040895 -0.0006526227871786846 0.00081772924088234576 -0.00086803793965373188 0.0004203823306098847 0.00078836753567553724 -0.00094688292401510154 -0.00077264042207389146 0.00080402662961684033 0.0010824439823488279 -0.00065303391244155007 -0.00060549258884313301 0.00090285353565021712 -0.00089910326620762739 0.00018746132006456791 0.00084196025054552595 0.00011746791708653539 0.00070756872796447993 -0.00014178272198794571 -0.0011090240578232626 0.00049269652547081935
leaf_weight=33 22 31 38 35 22 35 20 38 23 26 23 23 24 26 20 33 21 23 20 20
leaf_count=33 22 31 38 35 22 35 20 38 23 26 23 23 24 26 20 33 21 23 20 20
internal_value=3.60723e-12 2.68871e-05 -0.000118032 -0.000282074 -0.000125267 -0.000292767 0.000160338 7.78312e-05 0.000152763 2.18207e-05 0.000129466 0.000270489 -2.34247e-05 -0.00033409 -2.70945e-05 8.66077e-05 -6.9135e-05 -0.000283751 -0.000591662 -3.93365e-06
internal_weight=556 534 256 180 142 120 278 247 227 189 163 76 85 50 140 117 97 76 43 53
internal_count=556 534 256 180 142 120 278 247 227 189 163 76 85 50 140 117 97 76 43 53
is_linear=0
shrinkage=0.05


Tree=39
num_leaves=23
num_cat=0
split_feature=11 20 23 21 14 3 17 17 20 21 20 1 6 3 17 17 22 7 22 15 5 7
split_gain=0.00369512 0.00868163 0.00718463 0.0102391 0.00465379 0.00446042 0.00410709 0.0136597 0.00614617 0.00568735 0.00547083 0.00432497 0.00503773 0.00415828 0.00370394 0.00552774 0.00367861 0.00355795 0.00454387 0.00227492 0.00198617 0.00105614
threshold=0.025519254631887204 0.024795948280258776 1283.4681132937903 67977.49453125002 12.308000040054322 6563600.0000000009 58.451222000395752 60.791715002970385 -0.031302652212889075 59803.367968750004 -0.018189925517358371 25.613500595092777 65967.300781250015 3350650.0000000005 47.932724204883023 37.079269939923101 106283.0421875 27361917229.500004 102086.54882812501 0.52170086708587171 100171.07031250001 33562973872.000004
decision_type=2 2 2 2 2 2 2 2 2 2 2 2 2 2 2 2 2 2 2 2 2 2
left_child=1 6 3 -2 -4 -6 8 -8 -1 -10 -9 12 -11 -14 15 -15 -16 -12 -19 -20 21 -17
right_child=2 -3 4 -5 5 -7 7 10 9 11 17 -13 13 14 16 20 -18 18 19 -21 -22 -23
leaf_value=-0.00081521159371294311 -0.00056134479586035014 0.0010166248762170258 0.00017301024272455836 0.00095647871831897654 -0.00026945377762785941 -0.0010861983537740474 0.0014105271044952265 0.00078606363102153411 0.00076658475501019331 -0.00065391047268908899 0.00036173381210703937 -0.00068715570615259587 -0.00042127932782375045 0.0007094610638556664 0.0010536017068344253 -0.00016665179783948198 0.00012842380508248295 -0.00080217626314801503 -0.00036156272015597842 0.0003423434817401964 0.00019346079276147065 -0.00067434205717290755
leaf_weight=27 20 23 20 25 32 35 21 20 21 26 28 27 31 22 22 21 21 28 22 24 20 20
leaf_count=27 20 23 20 25 32 35 21 20 21 26 28 27 31 22 22 21 21 28 22 24 20 20
internal_value=3.25815e-12 7.19203e-05 -0.000231017 0.00028189 -0.000496313 -0.000696111 1.77352e-05 0.00023267 -0.000101395 -1.79623e-05 2.99242e-05 -9.6417e-05 -9.25882e-06 9.74988e-05 0.000225135 3.001e-05 0.000601771 -0.000118338 -0.000299987 5.69269e-06 -0.000215038 -0.000414306
internal_weight=556 424 132 45 87 67 401 143 258 231 122 210 183 157 126 83 43 102 74 46 61 41
internal_count=556 424 132 45 87 67 401 143 258 231 122 210 183 157 126 83 43 102 74 46 61 41
is_linear=0
shrinkage=0.05


Tree=40
num_leaves=21
num_cat=0
split_feature=17 18 20 16 12 12 23 13 17 20 16 2 4 13 19 12 15 20 15 7
split_gain=0.00359276 0.00351389 0.00927705 0.00763363 0.00849384 0.00691632 0.0163403 0.00718691 0.00662971 0.00460685 0.00656887 0.00376387 0.00780795 0.0061719 0.00570013 0.00552284 0.00461542 0.00617909 0.00241599 0.00202408
threshold=79.638012613594825 0.89525977871659201 0.026198074031419053 3.0480707731665202 27.946000099182132 23.407999992370609 2219.1322684139063 22.257499790191655 64.719220424639431 0.015608764789392994 0.70311420344830278 12.875000000000002 96711.921875000015 12.344500017166139 0.5901384825582916 20.141000175476076 0.29735496428492481 -0.013250981153760387 1.0340411153826865 27548338343.000004
decision_type=2 2 2 2 2 2 2 2 2 2 2 2 2 2 2 2 2 2 2 2
left_child=1 5 3 4 8 7 -7 9 -3 11 -11 13 -13 16 15 -14 -1 -18 -10 -19
right_child=-2 2 -4 -5 -6 6 -8 -9 18 10 -12 12 14 -15 -16 -17 17 19 -20 -21
leaf_value=0.0005809818874695339 -0.00064152533803800383 0.00071638979793266016 0.0012265584999113345 0.00091336928099221759 -0.00079448711513842069 -0.0014724645317003777 0.00035709727661647459 0.00083814520787564106 -0.00041441987498526742 -1.4282659006615481e-05 -0.0011841179363545962 -0.00076023313339573101 0.00076874868960918061 0.00093847887206356976 -0.00059884747052343478 -0.00018301986406354614 -0.00085483180128821104 -0.00017413728334455907 0.00026041027125583716 0.00046870743203908209
leaf_weight=30 21 34 20 23 31 26 23 25 36 30 20 37 35 25 21 27 22 24 21 25
leaf_count=30 21 34 20 23 31 26 23 25 36 30 20 37 35 25 21 27 22 24 21 25
internal_value=2.61071e-13 2.51814e-05 0.000217069 7.78286e-05 -7.96914e-05 -6.039e-05 -0.000613691 2.40703e-05 0.00016381 -4.46861e-05 -0.000482217 4.42429e-05 -0.000156165 0.000235107 0.000113119 0.000354269 6.10054e-05 -0.000158703 -0.000165798 0.000153845
internal_weight=556 535 165 145 122 370 49 321 91 296 50 246 120 126 83 62 101 71 57 49
internal_count=556 535 165 145 122 370 49 321 91 296 50 246 120 126 83 62 101 71 57 49
is_linear=0
shrinkage=0.05


Tree=41
num_leaves=22
num_cat=0
split_feature=9 7 17 11 11 21 22 20 14 9 17 3 15 22 13 2 9 7 3 11 4
split_gain=0.00358463 0.00409636 0.00715282 0.00293266 0.00551776 0.00477492 0.00443524 0.00535044 0.00746275 0.00578808 0.00431697 0.00510431 0.00425437 0.00694947 0.0032639 0.00750383 0.00516126 0.00346644 0.00279795 0.00274881 0.00176518
threshold=47.084999084472663 81718775365.000015 58.451222000395752 0.10390449582856622 0.054299053615725741 58752.598437500004 60894.917968750007 -0.0067117431967232957 24.829500055313115 32.199998855590827 67.195377716722291 3250500.0000000005 0.32100600677734509 96475.606640625003 15.538999938964846 12.260000228881838 18.82499980926514 53823928435.000008 5134550.0000000009 0.073559773523186114 93910.125000000015
decision_type=2 2 2 2 2 2 2 2 2 2 2 2 2 2 2 2 2 2 2 2 2
left_child=1 3 -3 4 5 -1 -7 8 12 10 11 -9 -8 18 15 -13 -16 -18 -14 -6 -12
right_child=-2 2 -4 -5 19 6 7 9 -10 -11 20 14 13 -15 16 -17 17 -19 -20 -21 -22
leaf_value=0.00076433294336311522 -0.00064079949834627945 -0.00011851507677839926 0.0010785045941399099 0.0005586656190211042 -0.0009389017563080416 -0.00070138716925968129 0.00046567709090326116 -0.00037704447055265548 -0.0011298153485404328 0.00092776127223094757 2.653555341318927e-05 0.00011033467102418494 -0.00025867027822338667 0.00033598273753341349 -0.00039855215602136894 0.0013196798182553207 0.00077505469755945547 -2.5344231085000504e-05 -0.00096732830577934698 -0.00014521754936140497 -0.00055907615476885001
leaf_weight=20 21 26 24 21 24 23 27 31 20 22 22 29 30 32 29 23 31 24 26 20 31
leaf_count=20 21 26 24 21 24 23 27 31 20 22 22 29 30 32 29 23 31 24 26 20 31
internal_value=-1.73902e-12 2.51529e-05 0.000456054 -1.927e-05 -4.54265e-05 1.03812e-05 -2.73164e-05 1.38072e-05 -0.000238387 0.000154494 7.71673e-05 0.000201942 -8.33558e-05 -0.000251809 0.000333917 0.000645237 0.000141195 0.00042579 -0.00058769 -0.000578136 -0.000315992
internal_weight=556 535 50 485 464 420 400 377 135 242 220 167 115 88 136 52 84 55 56 44 53
internal_count=556 535 50 485 464 420 400 377 135 242 220 167 115 88 136 52 84 55 56 44 53
is_linear=0
shrinkage=0.05


Tree=42
num_leaves=21
num_cat=0
split_feature=11 20 20 14 20 5 11 19 0 19 19 18 6 19 7 20 15 4 7 20
split_gain=0.00330123 0.00632799 0.00618054 0.00599143 0.00466364 0.00491038 0.00404179 0.00387435 0.00652463 0.00416781 0.00223859 0.00610737 0.00551346 0.00454758 0.00604543 0.00483567 0.00452331 0.00412379 0.00276742 0.00188256
threshold=0.032775461912458066 0.024795948280258776 -0.0049183529792558569 20.21037497520447 0.015608764789392994 58653.595703125007 0.070813666230230013 1.6889652628271523 27.694999694824222 2.3941619271687933 1.0000000180025095e-35 -0.64412391534349023 86112.617187500015 0.62002771869618567 43969235571.000008 -0.0023493587335671191 0.55115294616493349 96711.921875000015 45470128450.500008 -0.01116691814975662
decision_type=2 2 2 2 2 2 2 2 2 2 2 2 2 2 2 2 2 2 2 2
left_child=1 4 -2 6 5 -1 -4 8 10 -9 11 12 -7 14 16 19 -12 -14 -17 -15
right_child=2 -3 3 -5 -6 7 -8 9 -10 -11 13 -13 17 15 -16 18 -18 -19 -20 -21
leaf_value=0.00072503445900600546 -0.0010363142465939746 0.00083540127286687498 -0.00078659215204728147 0.00044053506729445265 -0.00060683605510608433 0.00072500192084892963 2.7513057753939427e-05 0.00089740043185884135 -0.0007657440941517868 -2.5057413848116994e-05 0.00035710412865647904 -0.00068915002278420923 -0.00074462320335442209 -0.000196469581569545 0.00085222495495384609 0.00063486117426128619 -0.00056775750039378175 0.00024738767302055336 -0.00016759366348692724 -0.00088250170389073904
leaf_weight=26 20 25 30 36 28 24 31 24 29 25 39 36 20 20 38 21 20 22 22 20
leaf_count=26 20 25 30 36 28 24 31 24 29 25 39 36 20 20 38 21 20 22 22 20
internal_value=-1.94985e-13 6.28972e-05 -0.000235999 -7.09855e-05 1.62484e-05 6.14463e-05 -0.000372867 1.35205e-05 -5.15878e-05 0.000426759 2.18538e-05 -0.000165287 0.000120456 0.0001279 0.000360376 -0.000143788 4.35917e-05 -0.000224998 0.000224303 -0.000539486
internal_weight=556 439 117 97 414 386 61 360 311 49 282 102 66 180 97 83 59 42 43 40
internal_count=556 439 117 97 414 386 61 360 311 49 282 102 66 180 97 83 59 42 43 40
is_linear=0
shrinkage=0.05


Tree=43
num_leaves=21
num_cat=0
split_feature=11 11 20 21 22 20 17 21 17 7 20 6 11 10 16 20 7 5 18 18
split_gain=0.00318993 0.00521055 0.00385959 0.00364038 0.0045947 0.00557615 0.00360662 0.00682116 0.00565983 0.00509726 0.00871529 0.00613327 0.00489639 0.00421917 0.00594003 0.00230609 0.00310928 0.00230564 0.0018195 0.0022592
threshold=0.054299053615725741 0.097649144440471583 0.015608764789392994 58752.598437500004 60894.917968750007 0.021961025636153767 55.633218647930128 66804.195312500015 62.479048343484727 48072105455.500008 -0.018941637612655434 101202.43359375001 0.0093456327923242561 13.995000362396242 1.093540905399585 0.0064201706090948338 28260165075.000004 105592.96093750001 2.3147011775391886 1.0630449999990497
decision_type=2 2 2 2 2 2 2 2 2 2 2 2 2 2 2 2 2 2 2 2
left_child=3 2 -2 -1 -5 6 9 -8 13 10 -6 -11 18 -9 -15 16 -12 -13 19 -10
right_child=1 -3 -4 4 5 -7 7 8 12 11 15 17 -14 14 -16 -17 -18 -19 -20 -21
leaf_value=0.00070769005920737985 -0.0010767242905179351 0.0002071240501633535 -0.00014854601201174473 -0.00067020409877169068 -0.0012796309862529772 0.00062544268752949745 0.00087499899798006348 -0.00019992351534754216 0.00024694207560969515 0.00061097928530962704 -0.00032285812135866696 -0.00064752551726996897 -0.0007409925234969706 0.0011761485785245895 3.546921486434128e-05 -0.00055567202547940223 0.0003262983111198992 8.651696477065106e-05 0.00038689191506304985 -0.00045418963957302
leaf_weight=20 24 30 21 23 21 39 28 21 20 39 39 20 30 25 21 27 35 23 23 27
leaf_count=20 24 30 21 23 21 39 28 21 20 39 39 20 30 25 21 27 35 23 23 27
internal_value=7.48738e-13 -0.000303295 -0.000643574 4.72913e-05 1.86406e-05 5.48128e-05 -9.63017e-07 0.000152793 3.17044e-05 -0.000147936 -0.00035284 0.000156922 -0.000206555 0.000387316 0.000655404 -0.00016014 -1.58247e-05 -0.000254898 2.24891e-05 -0.000155836
internal_weight=556 75 45 481 461 438 399 195 167 204 122 82 100 67 46 101 74 43 70 47
internal_count=556 75 45 481 461 438 399 195 167 204 122 82 100 67 46 101 74 43 70 47
is_linear=0
shrinkage=0.05


Tree=44
num_leaves=22
num_cat=0
split_feature=9 14 9 16 10 19 19 20 20 3 11 18 20 11 11 17 15 3 15 19 16
split_gain=0.00312792 0.00376373 0.00358221 0.00774867 0.00676975 0.00546572 0.00552394 0.00555402 0.00400977 0.00413066 0.00378102 0.00434222 0.00413364 0.00571116 0.00358974 0.00292623 0.00445582 0.00359734 0.0022919 0.00163417 0.00129402
threshold=47.084999084472663 34.546374988555918 25.925000190734867 1.6218046374722588 24.220000267028812 1.3407684406434031 1.0925978304186532 0.029044604604070993 0.021041142182634979 8654750.0000000019 0.014570529197172279 0.2833807322602438 -0.031751682226005377 -0.056038433930672031 -0.0081847379565903027 58.451222000395752 0.2172407858313336 5358000.0000000009 0.56565826054234647 -0.79285757257370149 0.55201117875136352
decision_type=2 2 2 2 2 2 2 2 2 2 2 2 2 2 2 2 2 2 2 2 2
left_child=1 2 4 -4 5 6 7 8 9 10 12 -12 -1 -14 20 16 -16 19 -17 -18 -15
right_child=-2 -3 3 -5 -6 -7 -8 -9 -10 -11 11 -13 13 14 15 18 17 -19 -20 -21 -22
leaf_value=-0.00063912328332662585 -0.00059858713343384723 0.00051723939205759154 -0.0011204836855044547 7.7016500207329451e-05 0.00078841403893810435 -0.00080082876146272096 0.00079688351179356691 -0.0006179651173338894 0.00068106975851823463 0.00067437124040831511 -2.4624954780197836e-05 -0.00095181397754577526 0.00087931210402443646 -0.000585635110270232 -0.00057108079659519721 0.00089124805585015564 0.00074489519849356097 -0.00037182682601269337 0.00013429722137516363 0.00018509969863771404 -0.00011464490355657679
leaf_weight=21 21 36 22 35 28 21 22 35 23 21 28 23 21 25 25 20 22 20 20 32 35
leaf_count=21 21 36 22 35 28 21 22 35 23 21 28 23 21 25 25 20 22 20 20 32 35
internal_value=3.51366e-12 2.34959e-05 -1.21248e-05 -0.000385177 3.59837e-05 -1.49054e-05 2.70906e-05 -1.85575e-05 4.38807e-05 -2.94145e-06 -5.16523e-05 -0.000442769 3.11151e-05 9.50924e-05 1.23356e-05 0.000151858 6.03362e-06 0.000201005 0.000512773 0.000413165 -0.000310891
internal_weight=556 535 499 57 442 414 393 371 336 313 292 51 241 220 199 139 99 74 40 54 60
internal_count=556 535 499 57 442 414 393 371 336 313 292 51 241 220 199 139 99 74 40 54 60
is_linear=0
shrinkage=0.05


Tree=45
num_leaves=21
num_cat=0
split_feature=17 19 20 20 20 8 3 16 20 17 11 17 5 0 20 15 17 15 18 3
split_gain=0.00306151 0.0029849 0.0083911 0.00550615 0.00568216 0.0047012 0.00431058 0.00384649 0.00899964 0.00676563 0.00277167 0.0035191 0.00367783 0.00589735 0.00528353 0.00288424 0.00235737 0.00231204 0.00223269 0.00236027
threshold=79.638012613594825 1.1604305273171744 0.021712119478922157 0.029044604604070993 0.021712119478922157 25.925000190734867 8654750.0000000019 2.8416964551298509 -0.0079004185241556817 66.300954074679609 -0.056038433930672031 47.624677365544649 112339.82031250001 19.217499732971195 -0.0058116132332811645 0.43410609484822787 38.168818375025126 0.64371536443428645 0.2012605898627671 4578450.0000000009
decision_type=2 2 2 2 2 2 2 2 2 2 2 2 2 2 2 2 2 2 2 2
left_child=1 3 7 4 5 6 10 8 -3 -10 -1 15 13 14 -13 16 -12 -17 -16 -20
right_child=-2 2 -4 -5 -6 -7 -8 -9 9 -11 11 12 -14 -15 18 17 -18 -19 19 -21
leaf_value=0.00043466753627095989 -0.00059219866941150816 -0.0010507881126250141 0.0011260315900224007 -0.00061337079333545833 0.00083818803635949735 -0.00064984719345894911 0.00071813868001169929 0.00053663974784805236 0.00085695053090934056 -0.0003344195655350072 0.00038594052337272014 -0.00045940579297686264 -0.00047019936313154174 0.00098206285016203768 0.00068160034679749521 -0.00080592282090419178 -0.00028215063503012061 -0.00022406133679109383 -0.0003115676474408247 0.00037062044066260569
leaf_weight=30 21 20 22 38 20 28 21 28 22 26 23 35 25 20 24 31 31 38 21 32
leaf_count=30 21 20 22 38 20 28 21 28 22 26 23 35 25 20 24 31 31 38 21 32
internal_value=4.00276e-13 2.32452e-05 0.000245261 -3.95796e-05 1.7951e-05 -2.77447e-05 2.48803e-05 4.34183e-05 -0.000159673 0.000211625 -2.20824e-05 -7.10199e-05 8.58752e-05 0.000191192 4.99655e-05 -0.000271284 2.40671e-06 -0.000485477 0.000281498 0.00010032
internal_weight=556 535 118 417 379 359 331 96 68 48 310 280 157 132 112 123 54 69 77 53
internal_count=556 535 118 417 379 359 331 96 68 48 310 280 157 132 112 123 54 69 77 53
is_linear=0
shrinkage=0.05


Tree=46
num_leaves=22
num_cat=0
split_feature=9 7 17 12 19 20 14 17 6 5 7 13 20 13 16 17 9 3 18 20 0
split_gain=0.00295908 0.00354289 0.0061439 0.00310459 0.00997565 0.00685747 0.00594418 0.00533448 0.00555023 0.00499688 0.00440243 0.00773759 0.00363696 0.00361775 0.00485369 0.00414795 0.00346213 0.00317388 0.0022759 0.00206407 0.00150697
